nep4 2 H O 
cutoff 8 4 976 130
n_max 4 4
basis_size 12 12
l_max 4 2 0
ANN 180 0
  1.0717028e-01
  7.8245625e-02
 -2.1919605e-01
 -4.3111738e-02
 -4.1443784e-02
 -1.7750612e-01
 -7.8516312e-02
 -7.9169169e-02
  3.3059379e-01
 -8.2849972e-02
  1.6632135e-01
  2.0929573e-02
 -1.8476988e-01
 -1.6802035e-02
 -9.0770550e-02
 -2.2456631e-02
 -4.0885575e-02
 -1.2765223e-01
 -1.5668716e-01
 -1.0965952e-01
 -5.3612865e-04
  3.1508046e-01
 -7.1967579e-02
  9.2023022e-02
  1.6139996e-01
  1.4777972e-01
 -9.1254301e-02
  8.2576036e-02
 -1.1422076e-01
 -6.1239660e-02
  1.3044512e-01
  2.7546745e-02
  4.8336286e-02
 -2.1202201e-02
 -6.2315963e-02
 -1.3839079e-01
 -4.4461995e-02
  5.9248157e-02
 -2.6412088e-01
  7.8143768e-02
  3.3903420e-02
 -8.5287787e-02
 -2.4911796e-01
  1.1483373e-01
  1.2682179e-01
  2.1356712e-01
  3.3453721e-01
  1.1129616e-01
 -6.5976448e-02
  1.4884347e-02
 -1.2904106e-01
 -2.7431774e-01
  1.3488927e-01
  6.8803743e-02
 -4.9029026e-02
 -2.4512268e-03
  1.7446601e-01
  6.3109674e-02
  2.2920142e-01
  2.1972942e-01
  2.2556210e-02
 -5.9938688e-02
  9.8117255e-03
  4.4327177e-02
 -1.6031001e-02
 -2.1636453e-02
  5.4976624e-02
  5.0994728e-02
 -1.1248460e-01
  1.4632580e-01
  1.3907424e-01
  3.7414074e-02
 -1.0182625e-01
  4.7363900e-02
 -1.1602280e-01
  8.1668943e-03
 -2.2547791e-02
 -1.6316406e-01
 -2.1441065e-01
  1.8199065e-01
  1.9679137e-02
  1.6182454e-01
 -1.4000262e-01
 -6.4960241e-02
 -2.7380595e-01
 -1.8508728e-01
  2.3372744e-01
  3.2118410e-02
  3.9351642e-02
  4.7029134e-02
 -3.4962744e-01
 -8.9563411e-01
  7.8655070e-01
  1.5070152e-01
 -1.1012114e+00
  4.1644827e-01
  4.2424675e-02
 -3.3070043e-01
 -2.7773127e-01
  2.5548619e-01
  3.0657685e-01
  6.7596966e-01
 -7.6592699e-02
  3.9301023e-01
 -2.1812696e-02
  7.5049192e-02
 -2.2944994e-01
 -3.3023310e-01
  1.2731696e+00
  1.2676753e-02
  4.1073609e-02
 -6.5074903e-01
  3.1063287e-02
  2.0477277e-01
 -5.9774797e-02
 -3.4956958e-02
 -8.3913624e-02
  3.2964356e-02
  8.2012728e-02
  4.0731099e-02
 -6.0984689e-01
 -3.6562148e-02
 -1.1244153e-01
 -1.7253894e-01
  4.7858241e-01
 -2.0651510e-02
  4.9760733e-02
 -2.1163970e-01
  1.9845802e-01
  2.7086374e-01
  2.0763675e-02
  1.3461854e-01
 -1.4366922e-02
 -2.2538920e-01
 -4.0621454e-01
  6.1106540e-02
  4.0276326e-02
  1.2835547e-01
  5.8080649e-01
 -4.8653428e-02
 -3.1607610e-04
  1.2542718e-02
 -1.3636982e-01
  6.6109635e-02
 -1.3479644e-01
  3.3261944e-02
 -2.2300977e-02
 -4.2176120e-02
 -8.6511886e-03
  1.7710477e-02
 -3.7282888e-02
  9.5395995e-03
 -3.5907049e-02
  1.0125624e-01
  6.7268990e-02
 -1.0637493e-01
  6.0005840e-03
  1.1053794e-01
  6.1864261e-02
 -5.9906140e-02
 -2.0958243e-02
  4.7431055e-01
 -5.0529227e-02
 -1.3765280e-01
 -9.7255811e-02
 -1.4781849e-03
 -1.0904653e-01
  8.3758943e-02
 -1.4173971e-02
 -1.6777833e-01
  9.9859141e-02
  1.3549097e-01
 -1.8565601e-02
 -5.5253333e-03
  6.2860153e-04
 -3.9121233e-02
  1.6695254e-01
 -4.2888351e-02
 -1.6819224e-01
  8.8846520e-02
  8.2760282e-02
 -9.6373163e-02
 -9.2737250e-02
  1.7655103e-01
  7.5609587e-02
  1.6739818e-01
 -1.7021757e-02
  4.1419245e-02
  3.0685869e-01
  2.7027789e-01
  1.9143306e-01
  4.4832197e-03
 -1.5694761e-01
 -1.9465131e-01
 -4.1884936e-02
 -1.0562146e-02
 -8.4032804e-02
 -3.9633449e-02
  6.1256077e-02
  5.2766912e-02
  8.0661356e-02
  1.1816349e-01
  5.2362155e-02
  3.1884205e-02
 -5.9016809e-02
 -1.0493372e-02
 -1.6414920e-02
 -9.2399806e-02
  2.4825601e-02
 -7.8315832e-02
 -6.4048007e-02
 -5.9113647e-03
 -2.1550046e-01
 -2.0472372e-01
  2.3459554e-02
  5.4747444e-02
  3.8332972e-01
  3.2151382e-02
 -4.0328775e-02
  3.1400453e-02
 -1.7290454e-01
 -4.7964573e-02
  3.5477404e-02
 -3.0118409e-01
 -1.5179609e-01
  6.1189562e-02
  2.0253360e-02
 -8.9785561e-02
  4.2681977e-02
 -6.3976660e-02
  1.5474989e-01
 -2.1946155e-02
  2.6911652e-01
  1.3297948e-01
  1.8373646e-02
 -1.9913591e-02
 -1.3554196e-01
  1.1439037e-01
  1.3433039e-01
 -2.3409730e-01
 -2.9513087e-02
  5.7922024e-02
  3.8075787e-01
 -2.3040305e-01
 -1.2984274e-01
  1.1922937e-01
  1.0761046e-03
 -3.2560263e-02
 -1.8617150e-01
  6.2013358e-02
  6.7552991e-02
 -4.7356474e-01
 -1.2211476e-01
  1.6315135e-01
 -1.8732087e-03
  2.7915666e-02
 -6.9022760e-02
 -4.2683765e-02
 -2.1926735e-01
 -2.3012012e-04
 -6.5715849e-02
  4.8895493e-01
 -5.6471728e-02
  1.1480013e-01
 -1.7936532e-01
 -1.3187046e-01
  8.5393205e-02
 -1.9745430e-01
  2.5992477e-02
 -5.3273711e-02
  8.5477453e-01
 -2.2247115e-01
  4.6485019e+00
  7.6989925e-01
 -2.6975362e+00
  3.2534604e+00
 -2.8285806e+00
 -9.0105188e-01
 -3.1113976e-01
 -7.3517132e-01
  2.8162329e+00
 -3.3378525e+00
  1.2299747e-01
 -1.0145172e-01
 -7.4548787e-01
  1.2772670e+00
 -1.8193449e+00
  6.5023112e-01
 -1.8375301e+00
 -1.5616798e-01
  3.7043926e-01
  1.8625548e-01
  4.4610962e-02
 -2.4289641e+00
 -1.6892266e-01
  1.3556798e+00
 -4.5680583e-01
 -1.9008577e-02
  2.2817468e-02
 -1.0470229e-01
 -1.0904369e-01
  4.9232773e-02
 -8.6893067e-02
  5.6478564e-02
 -1.6770506e-01
  3.6515526e-02
  4.0097903e-03
  8.1624150e-02
  7.9097018e-02
  3.2811616e-02
 -8.0635250e-02
 -5.9866223e-02
  6.3424885e-02
  2.5928849e-01
  2.1162506e-02
 -1.0303073e-01
  2.8198999e-03
 -1.9208308e-01
 -1.6088408e-01
 -6.2939927e-02
 -4.6123099e-02
 -1.0540334e-01
 -1.2936500e-02
  9.3913192e-01
  1.3950995e-01
 -6.7655690e-02
 -1.1453918e-01
  3.1597388e-03
  7.4143954e-02
  2.4636071e-02
 -2.7163554e-02
 -2.1099396e-01
 -5.4047741e-02
 -1.7981181e-02
 -1.5844494e-02
 -1.3575805e-02
 -4.0086064e-02
  2.3007492e-02
 -3.7431326e-02
 -2.6557255e-01
 -6.5245014e-03
  1.2851646e-02
  9.8416768e-03
 -4.7091130e-02
 -1.1200572e-01
 -8.1115648e-02
  1.1689452e-01
 -1.9373478e-01
 -2.3966411e-02
 -9.7185746e-02
 -1.1660006e-01
  3.0302919e-02
 -7.7719882e-02
  6.6449553e-02
 -5.1892292e-02
 -2.6827419e-01
  3.6553365e-01
  2.5389931e-01
 -3.2584444e-02
  1.9903493e-01
 -2.2265254e-01
  1.4510752e-01
  3.0238207e-02
 -1.9926548e-02
  4.4791754e-03
  1.5509868e-02
 -3.2536674e-02
 -1.0619509e-01
 -1.4261140e-01
  6.6511020e-02
  4.6844572e-02
  3.9413799e-02
  9.4543966e-03
 -6.2683257e-03
 -4.6213851e-03
 -2.8704610e-02
  1.0914125e-01
 -9.1798469e-02
 -3.9130881e-02
 -1.1093731e-01
 -1.7542958e-02
  8.1283040e-02
 -1.5183786e-01
  1.6996570e-02
 -4.1077655e-02
  5.5990968e-02
  4.7631096e-02
  1.0339735e-01
 -2.0726462e-01
  5.6002475e-02
 -1.6902426e-01
 -1.9699819e-01
 -6.8111494e-02
 -1.4418045e-01
 -1.1975059e-02
 -2.7431391e-02
  3.1998986e-01
 -6.7466550e-02
  1.4620477e-01
  3.0615358e-02
  1.5122767e-01
 -4.0089297e-01
 -3.3216000e-02
 -2.6266432e-01
 -3.0889502e-01
  1.8447628e-02
  2.4077201e-02
  4.4179831e-02
 -4.7210455e-01
 -7.2770745e-02
  8.3375268e-02
  1.5533884e-01
  1.0423330e-01
  1.2258616e-01
 -9.3847755e-03
  6.2829740e-02
 -8.1145942e-02
  6.8497658e-02
  5.7419624e-02
 -1.3124356e-01
 -5.7533306e-01
  8.8353321e-02
 -2.0215909e+00
 -9.7438298e-02
  1.1094820e-01
  4.2865090e-03
  8.0631399e-01
 -1.6073143e+00
  1.0860620e-01
 -6.5704173e-01
  9.7743732e-01
 -2.0700777e+00
 -1.5749718e+00
 -5.1826042e-01
 -2.9708153e-01
 -2.1196224e-01
 -3.0359216e+00
 -3.8251406e-01
  1.2287480e-01
 -2.5516655e-04
 -2.9416865e-01
  6.1934955e-02
 -4.1393510e-01
  2.5484279e-01
  4.9878214e-02
 -4.4830149e-01
 -9.7257185e-01
  1.2333488e-01
 -3.1923488e-01
  9.8195739e-02
  1.2223452e-01
  1.1999330e-02
 -2.5858751e-01
 -8.0374286e-02
 -3.1008255e-02
 -3.2451686e-02
 -2.6114525e-02
  1.8308763e-01
 -1.0125656e-01
 -3.4783296e-02
  1.8139396e-02
 -2.6192181e-02
 -1.9216244e-01
 -2.0480345e-01
 -1.1974162e-01
  2.0570097e-02
  2.5886577e-01
  4.1727133e-02
 -2.1270169e-01
  6.0026482e-02
  3.9340030e-02
  1.4289330e-01
 -1.2264261e-01
  1.5449317e-01
  5.6451196e-03
 -8.1651658e-02
  2.2258964e-01
 -1.1206923e-02
 -2.5199233e-02
 -2.8753515e-02
 -1.6285589e-01
  1.4863598e-01
  3.3845864e-02
  3.9102372e-02
  2.3359838e-01
 -7.5700462e-02
 -1.4563155e-01
 -5.5396091e-02
  4.1631591e-02
 -1.7325714e-02
 -6.8063870e-02
 -2.0878226e-02
 -4.9340781e-02
 -4.5223031e-02
 -8.4962279e-02
  9.1908006e-03
  4.9454775e-02
  1.8719420e-01
  4.3613996e-02
  1.1364169e-01
 -5.6947775e-02
  2.7328296e-02
  3.3030492e-01
 -2.0378286e-01
  3.8000550e-03
  1.7475210e-01
  5.1362451e-02
  1.5538231e-01
 -9.1961101e-02
 -6.8961807e-02
  3.2336167e-01
  2.7028191e-01
 -9.2792504e-02
 -2.9592324e-02
  8.4620239e-03
  1.8399929e-01
 -8.0990763e-03
 -1.2173524e-01
  7.4073747e-02
 -5.1697217e-02
 -4.0259227e-02
 -7.3783477e-03
 -2.6185047e-03
 -1.6991045e-02
 -1.3453743e-02
 -2.1300768e-02
 -2.6557148e-02
  5.1589295e-02
  1.0100304e-02
  1.5770048e-01
 -8.7035336e-02
  5.3407367e-02
  2.6614463e-02
  1.4950611e-01
 -1.2431068e-01
  1.3589446e-01
  1.0871608e-01
 -5.3977650e-02
  1.8396616e-01
 -1.1452468e-02
 -9.0829343e-02
  1.8591914e-01
 -1.9845559e-01
  5.9631884e-02
  1.5425587e-01
  2.8490099e-01
 -1.2205637e-02
 -7.4331872e-03
  5.5797748e-02
 -2.2741239e-01
  2.3401233e-03
 -9.2318371e-02
  8.8591479e-02
 -3.5946727e-02
  1.3489790e-01
 -2.0899859e-01
  9.6711330e-02
  1.7096551e-01
 -1.1804352e-01
  4.7050220e-01
 -9.7630739e-02
  7.9818770e-02
 -9.7016860e-03
 -3.5697933e-02
 -1.0747655e-02
 -6.4749159e-02
  1.5202682e-01
 -1.1776837e-01
  1.4069140e-01
 -6.7584671e-02
 -7.8757502e-02
 -2.1418342e-01
  2.4721000e-01
  1.8025842e-02
  5.1399272e-02
 -2.0752508e-02
 -1.1037606e-01
 -3.7599813e-02
  1.8277688e-01
 -6.6991262e-02
 -8.0497395e-03
 -9.9770978e-02
  1.6569220e-02
 -2.5757244e-01
 -2.9620551e-02
 -8.6728044e-02
  4.1662292e-03
  1.7279191e-01
 -2.6655830e-02
  1.0262389e-01
  1.4104803e-01
  5.1768874e-03
 -1.5736182e-01
 -1.3015509e-01
  1.2420882e-03
 -2.1429160e-01
  1.0918016e-01
 -4.4597007e-02
 -3.9011568e-02
  6.5266483e-02
  1.6870440e+00
  5.0315015e-02
  1.9321230e-01
 -2.6839867e-01
  4.9389967e-01
  2.9705769e-01
  4.6612930e-01
  5.2564729e-02
  2.3014027e-01
  1.3249291e-01
  1.8061799e-01
 -1.6813821e+00
  3.0182407e-03
  8.8466406e-02
  1.7760833e-01
 -3.7664670e-02
  9.6190882e-01
  3.0958619e-02
  2.8572965e-01
  1.4814231e-01
  1.3339284e-02
  8.6140645e-01
  8.1487773e-03
  3.3484736e-01
  9.4017811e-02
  2.9561177e-01
  8.8602733e-03
  1.3756807e-02
  3.8197410e-01
  7.4139044e-02
 -1.5914850e+00
 -3.6132982e-01
 -2.1962109e-01
  8.3821422e-01
 -4.4704840e-01
 -7.3361766e-01
  2.0686707e-01
  2.1325600e+00
  2.6395866e-01
  6.3372374e-02
  1.7090529e-01
  6.0077137e-01
  3.6138871e-01
 -2.4428381e-01
 -6.1082948e-02
  1.9673636e-02
 -5.7072920e-01
 -1.3848229e-01
 -1.0698711e+00
  2.3984170e-01
  1.0821952e-01
 -5.3243533e-02
 -1.4893316e-01
 -1.4551666e-01
  5.3689539e-02
  1.8855271e-01
  2.5937802e-01
  2.2656925e-01
 -5.8745205e-01
 -2.0955402e-01
  4.2788070e-01
 -3.1613249e-02
  6.2499040e-01
 -4.4315334e-02
  4.6525184e-02
  2.0337689e-01
  2.0586783e-01
 -8.5569024e-02
  7.2931878e-02
  9.9449837e-01
  2.0358693e-02
  1.1159370e+00
 -6.8202180e-01
  6.5392691e-01
  7.2847277e-01
  3.4201093e-02
  6.0790098e-01
 -2.5048424e-02
  4.7473127e-01
 -3.0091968e-01
 -1.8790527e-01
 -1.0869883e+00
 -1.4358526e-02
  7.1533015e-03
  2.5266436e-01
 -1.4712577e-01
 -7.6035693e-02
 -1.3070458e-02
  4.3207660e-01
  3.5918299e-02
  1.3088018e-01
 -2.5318465e-03
 -2.7045083e-01
 -2.6864654e-01
  2.1418239e-01
  2.4215199e-02
  2.6597470e-02
  1.9246894e-01
  3.5788931e-02
  1.1594699e-01
  1.3916342e-01
  8.3817989e-02
  8.5609876e-02
 -4.4764340e-02
  1.4406088e-01
 -5.8213674e-02
 -1.4249326e-01
 -1.1499517e-01
 -4.2478599e-02
  1.6886353e-01
 -7.4267864e-02
  4.9219538e-02
  4.7752466e-03
 -8.9248247e-02
 -7.0186250e-02
 -9.4452843e-02
  3.1529501e-02
 -4.4929549e-02
  1.9622968e-01
  3.9488457e-02
  5.5646636e-02
 -1.1099119e-01
 -1.6513787e-01
 -9.1073103e-03
  1.2656939e-01
  1.8350741e-01
 -6.0158145e-02
  2.1868923e-01
 -4.5313336e-02
 -2.3509677e-01
 -1.2156072e-01
 -2.7821058e-01
 -1.5556723e-02
 -3.2615682e-01
  2.1453981e-01
  2.8070819e-02
 -2.8880179e-01
 -1.0000233e-02
 -9.2791133e-02
 -4.5879139e-03
 -1.8558579e-02
  9.7102761e-02
  7.5205632e-02
 -3.4257674e-01
 -1.2228645e-01
  9.3006663e-02
  6.0193643e-02
  2.3342796e-02
  2.0024808e-02
  1.7176083e-01
 -2.1294156e-01
  5.3647544e-02
  1.0001832e-01
  1.9269495e-01
  8.5688040e-02
  8.1107430e-02
  1.0171598e-02
  1.4326467e-01
 -9.5777199e-02
  7.2115950e-02
  1.6160624e-01
 -1.6811430e-01
 -9.2950560e-02
  8.5112400e-02
 -1.5650121e-03
  8.0850795e-02
 -1.6379969e-01
  5.1816851e-02
 -2.3136018e-02
 -1.1756589e-01
  1.2710797e-02
 -2.5522289e-01
  3.7332915e-02
 -1.4531876e-01
 -4.8692048e-02
 -1.3773742e-02
 -9.8250853e-03
 -3.3027818e-03
 -7.2080204e-03
 -9.7164139e-02
 -3.1895047e-01
 -2.1865201e-01
 -2.0528008e-01
  5.0869778e-02
 -2.7497349e-02
  8.5453674e-02
 -2.2985598e-01
 -2.7354330e-01
  7.1975298e-02
  3.0157203e-02
 -2.6599446e-01
  9.0216815e-02
 -7.2294369e-02
 -1.9584814e-01
 -2.4633083e-02
  1.4288621e-01
  1.8820439e-01
  5.5058341e-02
 -2.2001871e-01
  2.6992466e-03
  1.0170075e-01
 -2.7692895e-02
 -1.0492263e-02
 -3.4070930e-01
 -1.0596038e-01
  6.9049463e-02
  4.3397043e-03
 -1.7559081e-02
 -1.3640897e-02
 -6.7009721e-03
  3.0576417e-01
 -1.9030868e-01
  2.4655035e+00
 -1.0882794e+00
 -1.7849323e+00
  1.6372017e+00
 -1.4403220e-01
  1.1795523e-01
 -3.9088213e-01
 -7.3943511e-03
  2.2282341e+00
  3.9140901e-01
 -9.1263756e-02
  4.5751315e-02
 -4.1747692e-01
  7.0629531e-01
  3.1457084e-01
  3.9818902e-02
 -9.6751995e-02
  8.2633659e-02
 -1.9836149e-01
  6.2927067e-02
  6.3686228e-01
 -5.4775473e-02
  5.0733149e-01
 -7.1073413e-01
  7.5374967e-01
  1.0187763e-03
 -1.1895291e-01
 -1.5667044e-02
  1.2489400e-01
  1.2459009e-01
  9.7963437e-02
 -1.9372904e-01
  5.5370595e-02
  2.8160831e-02
  1.0795863e-01
 -8.4152490e-02
  1.3227777e-01
  1.2580128e-01
  2.0001331e-01
 -1.0955706e-02
 -1.6364382e-01
  1.5878133e-01
 -6.7376338e-02
  1.3143575e-02
  3.7743349e-02
  8.8024221e-02
  6.0665015e-02
  1.2033916e-01
 -4.0187862e-02
 -1.2526567e-01
 -8.2358174e-02
  3.5462421e-01
  3.1358991e-02
  2.1431985e-01
 -8.4352478e-02
 -3.5057567e-02
  1.0931809e-01
  7.1304984e-02
  5.9479922e-02
  1.2352162e-01
  2.3308580e-01
 -3.0902280e-02
 -1.8715352e-01
 -4.6362884e-02
  9.0534359e-02
  3.9853506e-02
 -5.4195663e-04
  2.9796472e-02
  4.4805817e-02
  1.6697149e-01
  1.0560799e-02
  3.8219608e-02
 -5.4077372e-02
 -1.4203992e-01
  1.3459715e-02
  1.4585984e-02
 -4.3475110e-02
 -8.3594844e-02
  1.4041619e-01
 -4.4109583e-02
  6.9921138e-03
  2.6115764e-02
  3.4081772e-02
 -9.4353005e-02
  5.4983746e-02
  1.2358974e-01
 -2.8899539e-02
 -1.5499710e-01
 -2.8921291e-04
  1.3401362e-01
  2.7294639e-01
  2.4564637e-01
 -3.3806790e-02
  1.1009086e-02
 -1.2339242e-01
  5.3306669e-02
  6.8333782e-03
 -2.9876354e-01
  9.1520324e-02
 -7.2615989e-02
  7.2803333e-02
 -3.9563039e-03
 -2.7885464e-01
  1.4752640e-01
 -3.1548046e-02
  1.3821362e-01
  8.5940488e-02
  6.6654541e-02
  1.9451879e-02
 -2.8338134e-02
  5.5490732e-02
  8.8108152e-02
  3.6171958e-01
  1.2917569e-02
  8.1632055e-02
  1.4981973e-02
 -2.5605781e-02
 -9.8984400e-03
  2.1639477e-01
  1.3020141e-01
 -6.3769020e-02
 -2.0615797e-01
  1.4426123e-01
  4.9089227e-02
 -1.2756751e-01
 -2.7301595e-02
 -7.1358398e-02
  7.8470156e-02
 -2.1963310e-04
  2.7873731e-01
 -1.9274315e-01
 -6.4056970e-02
 -1.9407192e-01
  2.3795019e-01
  3.5181459e-02
 -4.4921055e-02
 -1.1598881e-01
  1.0310704e-01
  1.2133118e-01
  9.2172116e-02
 -1.4657871e-02
 -3.0763611e-02
  3.3792548e-02
  1.1913379e-01
 -1.2225276e-02
  6.9892287e-02
  1.0591348e-02
  4.3850996e-02
  6.1590727e-02
 -1.3537018e-01
  6.8384731e-01
 -6.0311090e-02
 -1.4985195e-01
 -3.0979188e-02
  1.0040141e-01
  3.6470935e-01
 -8.2531422e-02
  4.5276341e-01
  4.8191059e-02
 -5.4509789e-02
  2.4287639e-02
 -5.6548685e-02
  3.2117191e-01
  1.2918638e-01
  6.1017897e-02
 -4.8985280e-02
  1.6801432e-01
 -3.1758789e-02
  8.8127263e-02
  1.1544958e-03
 -1.6570002e-01
  3.3411214e-01
  6.5807246e-02
 -2.9054213e-02
 -2.2708935e-01
 -2.4859107e-01
  2.3771171e-02
 -7.5968310e-02
 -5.3170387e-02
  8.5116781e-02
 -3.2922276e-04
 -1.9344343e-01
  6.3619815e-02
 -1.3049896e-01
 -4.1926809e-02
 -9.2162788e-03
  1.2961756e-01
 -9.3634933e-02
 -4.9970645e-02
  3.2919226e-03
 -9.8297447e-02
  8.9492425e-03
 -8.0409959e-02
 -2.0815764e-02
  3.2645207e-02
  3.2406110e-01
 -2.2953252e-01
  6.5843374e-02
  7.5513937e-02
  7.5984770e-01
  2.4292244e-02
 -6.2084761e-02
 -3.8797790e-03
 -7.8337379e-02
 -8.6802579e-02
  4.4445720e-01
  1.1242179e-01
 -2.6124669e-04
 -1.6626604e-01
  6.5693469e-03
 -5.9387084e-02
  3.1336141e-01
  3.9396800e-02
  9.2709720e-02
 -1.3424273e-02
  1.7885083e-01
  7.0524648e-02
  8.2007632e-02
 -3.7098005e-02
 -6.4229211e-03
  6.2638193e-02
  8.4717058e-02
  1.5452847e-01
  4.6565048e-02
  3.2887542e-01
 -2.6127470e-01
  1.3224116e-01
 -8.9128487e-02
 -2.9701693e-03
  9.0333167e-04
 -1.9654681e-04
 -2.4967386e-01
  7.7475809e-02
 -9.6416816e-02
 -1.6964098e-02
  8.1782201e-03
  6.6943862e-02
  5.2992895e-02
 -3.1923369e-02
 -2.5332065e-02
  6.5074138e-02
  1.1214897e-01
 -1.1181988e-01
  3.7553251e-01
 -1.4239128e-01
 -4.9014218e-02
 -1.0600728e-01
  1.6598515e-02
  5.7887846e-01
  8.5954266e-03
 -6.0754217e-02
 -3.5251102e-01
  1.5119378e-02
 -2.4427678e-02
  1.9190010e-01
  1.6953699e-02
 -3.6514446e-02
 -1.8416452e-01
 -1.0004014e-01
  1.3871606e-02
 -1.4676479e-01
  4.6131159e-03
  4.0550761e-02
 -4.1463974e-01
 -3.2319549e-01
 -7.8406885e-02
  2.4662203e-01
  3.4200633e-01
  2.6436016e-01
 -9.2840955e-02
  4.0947601e-02
  1.8138541e-02
 -8.8024333e-02
 -8.2474295e-03
  2.6623851e-02
 -9.9667814e-03
 -2.2150525e-03
 -4.5483623e-02
 -2.0255992e-01
  2.0954665e-04
  1.0827892e-01
  3.0777967e-03
 -2.0904778e-01
  1.5080750e-01
 -1.6337680e-02
  2.5325591e-02
  1.5618730e-01
  6.1604693e-03
  9.5434248e-02
 -4.8337523e-02
 -6.8411939e-02
  2.5519215e-02
 -6.5122940e-02
 -5.7709806e-02
 -2.2641880e-02
  2.5870807e-02
  9.0862110e-02
 -4.6649650e-02
 -1.7694396e-01
 -9.6117035e-02
  1.2546372e-01
  2.0271078e-02
  2.8240891e-02
  6.5799370e-02
 -9.9322781e-02
 -8.2017072e-02
 -5.6513395e-02
 -8.8840071e-03
  2.8867569e-02
  9.8605417e-02
 -1.3776556e-02
  1.2683733e-01
 -1.5390736e-01
  3.7018806e-01
  8.2764570e-03
  4.4829074e-02
  4.1564707e-02
  5.9923694e-02
 -9.0105124e-02
  5.4115698e-02
  1.8708049e-01
 -4.1693486e-03
 -6.4985059e-02
 -1.3716485e-02
 -3.5782758e-02
  8.5696928e-02
  1.2052779e-01
  1.3368599e-02
  8.6589277e-02
  3.6579880e-01
 -1.2924589e-01
  2.1402688e-01
 -5.0167106e-03
 -6.3070685e-02
 -3.0164152e-01
 -1.6514347e-01
 -9.8184243e-02
  1.8183370e-01
 -2.7422892e-02
 -9.2366850e-03
  3.1003916e-01
 -1.3355286e-02
  8.0875978e-02
 -2.7591269e-03
  6.1131421e-02
  1.5064834e-01
  2.8907180e-01
  8.2329504e-02
 -3.2565230e-01
 -1.0873942e-01
  3.0584443e-02
 -6.0316801e-02
 -2.2059481e-01
 -7.8664254e-03
 -1.3619927e-02
  1.4017172e-01
  7.1254936e-03
  1.1565039e-01
 -6.4813054e-01
 -1.7503781e+00
 -6.3062513e-01
  2.7306318e-01
 -6.4409989e-01
 -3.4584647e-01
 -4.3019773e-03
 -7.8930475e-02
 -1.7396681e-01
  1.4719678e-02
  2.7964661e-02
  9.3412571e-02
  1.2661354e-01
  1.6542263e-01
 -1.0901933e-01
  1.7828913e-01
 -6.9210216e-02
  1.8654484e-01
  2.9776765e-03
 -2.1070929e-02
 -8.8311717e-02
 -9.2338249e-02
  1.8477620e-01
 -3.7649000e-01
  8.6493753e-02
 -5.5011147e-01
 -1.7934978e-01
 -1.4400110e-01
  2.0523341e-01
 -2.3694560e-02
  1.7956787e-01
 -2.4236169e-02
 -6.5933883e-02
 -1.9266349e-01
  9.9390954e-02
 -1.8011779e-05
 -4.0411371e-01
  2.4631180e-02
  9.9167421e-02
  2.6868831e-02
 -1.3445793e-02
  1.1310712e-02
  2.5092146e-01
 -1.1425608e-01
  2.0334601e-01
  1.4578374e-02
  2.0868203e-01
 -7.7843413e-02
 -1.2873027e-02
  2.4899304e-02
  5.6807075e-02
 -1.0138703e-02
  2.6588392e-02
  2.1057029e-01
 -1.2094030e-01
 -8.6646974e-02
  4.0279716e-02
  1.5944122e-01
  5.4314304e-02
  1.3385113e-02
 -8.8177007e-03
 -1.3866587e-01
 -5.8543593e-02
 -7.8817278e-02
 -1.2493975e-02
 -6.4053297e-02
 -1.6481653e-01
  3.0697368e-02
 -1.4070384e-01
 -4.3142211e-02
  2.2013187e-03
 -7.6167136e-02
 -2.1014428e-03
  1.7358050e-01
  8.4644966e-02
  4.9288515e-02
 -6.7042075e-02
 -7.2219588e-02
 -1.9049005e-01
  9.3858130e-02
 -4.9619935e-02
 -1.5913144e-01
 -6.5745659e-02
 -3.1394657e-01
  6.1491299e-01
 -9.2805764e-03
  1.0080276e-02
 -1.3819191e-01
  1.4373150e-01
 -1.8037382e-01
  1.3570906e-02
 -1.0819130e-01
  3.8951147e-02
 -1.1295498e-01
  4.3841647e-03
 -1.1117117e-02
 -4.9046300e-02
 -3.4529907e-01
  2.0614003e-01
  8.6919136e-02
 -2.1202757e-03
 -3.3253382e-03
  5.0731331e-01
 -1.7223026e-01
  1.0144824e-01
 -6.8105027e-02
 -2.7300397e-01
 -4.1507882e-01
 -4.2928927e-02
  1.7744088e-01
  2.4960000e-02
 -1.3202250e-01
 -6.4017605e-03
  1.3774502e-01
  2.1909136e-01
 -9.8907880e-02
  8.6338259e-02
 -3.2800343e-02
 -2.4398658e-02
  4.7108838e-03
 -2.3384106e-01
  3.0152285e-01
 -2.0402296e-01
  2.9682535e-01
  8.5265003e-02
  1.3543320e-01
  3.9978016e-02
  2.3899840e-01
  1.1763085e-01
  5.0349333e-03
 -5.3854086e-03
  3.5286598e-02
  1.5597899e-01
 -2.1782652e-02
  1.9286649e-01
 -2.9866514e-01
 -1.3442966e-01
 -1.9603636e-02
  3.1555137e-01
 -2.5188051e-02
  1.1531652e-01
 -1.4928290e-02
  5.6605678e-02
  1.4009890e-01
  1.0816926e-01
 -1.6606733e-02
  8.5992537e-02
 -6.6311741e-03
  1.1020111e-02
  1.1117455e-01
 -1.5289471e-02
  4.9411871e-02
  1.1678505e-01
  1.7788935e-02
  1.2653726e-01
  4.2167556e-02
  5.3251229e-02
  9.8637745e-02
 -7.6606415e-02
  9.9673606e-02
 -4.4385698e-02
  1.9362624e-01
 -1.9310646e-01
 -1.6319002e-01
 -5.9917655e-02
 -9.7475620e-03
  2.6365346e-01
  4.7410369e-02
  3.2900800e-03
 -9.1569051e-02
 -6.4565703e-02
 -4.0973942e-03
 -4.0064681e-02
  4.7168028e-02
  2.6752952e-02
  7.7301905e-02
 -5.7506528e-02
  2.6408419e-01
  4.2764127e-02
  1.1437088e-01
  5.0458569e-02
 -4.0013038e-02
  9.4018225e-04
  8.6527131e-03
  5.8948185e-02
  1.3899954e-01
  4.8803575e-02
  2.8564099e-02
  1.8417618e-01
 -1.0302567e-01
 -6.5526739e-02
  2.9261231e-01
 -2.1533544e-01
  7.5910151e-02
 -5.7177937e-01
 -8.0466360e-02
 -4.3686844e-02
  4.8760436e-02
 -7.8217741e-03
 -1.2127813e-01
 -1.0056984e-02
  8.7102830e-02
  7.8646451e-02
  5.1426560e-01
  2.2300099e-01
  5.1321432e-02
 -2.1123742e-01
  2.6630756e-02
 -1.0999900e-01
  1.4221174e-01
 -1.5858540e-02
 -1.1332814e+00
  2.9282546e-01
  1.1266565e-01
  2.5604887e-02
 -1.3659549e-01
 -4.8930418e-02
  3.6601942e-02
 -2.6392577e-02
 -3.6901957e-01
 -1.5820436e-01
 -4.0231742e-02
  3.8673192e-02
  1.0479852e-01
 -7.0232213e-02
 -1.5001480e-01
 -1.8064180e-01
  9.3559690e-02
 -6.2885672e-02
 -3.9346486e-02
 -3.8342357e-01
  4.9939822e-02
 -1.0335717e-01
  2.7965817e-01
  1.3900432e-01
 -2.9209457e-02
  1.0633627e-01
  3.8159199e-02
  1.0215144e-01
 -6.3651882e-02
  7.9497263e-02
 -9.1907002e-02
 -2.0733109e-02
 -1.1356872e-01
 -1.7323339e-01
  1.7753968e-01
 -1.7880186e-01
 -1.1974981e-01
 -6.2191628e-02
 -1.8778650e-01
 -1.0771751e-01
  1.6138412e-01
 -3.3900601e-01
 -4.8450255e-03
 -1.2202066e-01
 -6.0303384e-03
  8.0177002e-02
 -7.1619108e-02
 -1.4203122e-02
  1.2515908e-01
  2.2351781e-02
  1.5163676e-02
 -2.0608394e-01
 -2.0351009e-01
 -1.0195085e-01
 -1.9301090e-02
  1.5312980e-01
 -2.5938619e-02
 -1.3372741e-03
  1.3570650e-01
  1.1615666e-02
  4.9836479e-02
  2.1044199e-01
  4.9519602e-02
 -9.1736633e-03
  4.1242775e-01
 -1.5669516e-01
  1.4611164e-01
  1.9589308e-01
  3.5481006e-02
  5.5376727e-02
  1.4807636e-01
  2.2250976e-02
  2.4985296e-01
 -2.0328858e-03
 -9.6882068e-02
  1.3102688e-01
  1.2029187e-01
 -8.2476832e-02
  5.3760141e-02
 -2.2998516e-02
 -1.3179575e-01
 -3.1993687e-02
 -1.0045592e-01
 -1.7832951e-01
  4.2184913e-03
 -6.1455566e-02
 -1.2089825e-01
  2.1769723e-01
  6.6586286e-02
  1.0674289e+00
 -4.5795432e-01
  2.6738088e+00
 -2.8831929e-01
 -2.2403917e-01
 -1.1587051e-01
 -2.6858360e-01
  1.2056158e+00
 -4.9341414e-02
  7.8947061e-01
  2.8688964e-01
 -1.3723284e+00
  7.1619463e-01
  8.6696789e-02
  2.6546363e-02
 -2.9919222e-01
 -1.3335609e+00
  5.9584427e-01
  5.0114971e-01
  2.6953146e-02
 -3.5589647e-01
 -2.5860505e+00
  1.1790443e-01
 -9.3021774e-01
  1.3638282e-01
  3.0288208e-02
 -2.8223777e-01
  9.8680906e-02
 -7.2377867e-01
  4.2130728e-03
  5.8902692e-02
  1.6546133e-01
 -2.1002818e-02
 -1.4090109e-01
 -7.5821333e-02
 -2.4365054e-02
 -2.9516343e-02
 -4.8046052e-02
 -1.5025944e-01
 -9.5408551e-02
  3.2919848e-01
  7.9891697e-02
 -1.6798849e-01
 -1.1567505e-01
  6.2338028e-02
  2.2150353e-03
  1.0535341e-01
 -1.9307554e-01
 -2.0758638e-03
 -2.1606909e-01
  2.9556125e-02
 -8.9913704e-02
  6.2837027e-02
 -1.5519246e-01
  4.8953425e-02
  6.0719275e-01
 -3.1168759e-04
 -1.7671540e-02
 -4.4926733e-02
  2.4938012e-02
 -3.3235747e-02
 -7.0816509e-02
  5.7672095e-03
  5.4347143e-04
 -4.6815246e-02
 -3.1805739e-02
 -2.1305633e-01
  6.4811110e-02
  1.5457590e-01
  3.0302298e-01
 -2.5744490e-02
 -9.3777657e-02
 -2.0110125e-02
  3.9318502e-02
 -1.3822103e-01
 -1.1537190e-01
 -1.3802683e-01
  1.6741784e-01
  1.8847829e-01
 -5.0695550e-02
  1.4528392e-01
  6.1472852e-02
 -1.4872780e-01
 -5.3582579e-02
 -9.3760975e-03
 -2.0495499e-02
 -3.7374128e-02
  8.8561410e-03
  1.9069299e-01
  1.4452361e-02
 -2.7924348e-02
  9.3895966e-01
  1.8934795e-01
 -1.2733245e-01
  1.9813041e-01
 -7.2593257e-02
  1.4785028e-01
 -6.6748470e-02
 -9.7897939e-02
  6.4760551e-02
 -4.6449289e-02
  2.0159485e-02
  8.7766603e-02
  5.2253801e-02
  2.9138550e-01
  7.1055591e-02
 -7.4397894e-03
 -1.2678191e-01
  2.2677411e-01
 -1.3470450e-01
  8.2160473e-02
  1.4789823e-03
  1.1411688e-01
 -8.5133471e-02
  1.2648745e-01
 -6.5895066e-02
  3.4474677e-01
 -2.6178911e-02
 -3.8049644e-01
 -5.6256216e-02
  5.3397131e-01
  4.7792149e-01
  2.0778291e+00
  9.7322157e-03
  1.0895168e+00
  1.7519830e-01
  9.8584265e-02
 -3.0503143e-02
  2.8539705e-01
  2.4665804e-01
 -3.6509186e-01
  6.1221552e-01
 -4.6767664e-01
  1.2239688e-02
  5.5026542e-02
  1.0426756e-01
  6.7951359e-02
 -9.3638524e-04
  3.4395408e-02
  3.2005534e-02
 -3.0112350e-01
 -1.3132444e-01
 -8.7053785e-03
  1.4095781e+00
  3.2022911e-01
  2.6994783e-02
  4.2137924e-01
 -2.2596980e-02
  4.8409294e-02
  2.1858799e-01
 -2.7917702e-02
  5.8852293e-02
  4.0933919e-01
 -8.2588233e-03
  1.3960380e-02
  3.0957444e-02
  1.1710059e-01
  2.7544466e-01
  6.8178654e-02
  2.6418505e-02
  1.8482304e-03
  1.0339986e-01
  1.1673297e-01
 -7.9248920e-02
 -1.2073351e-01
  6.0949996e-02
 -1.1110522e-02
 -1.1302211e-01
 -5.9482519e-02
 -9.1257848e-02
 -1.0776465e-01
 -3.5217039e-02
 -3.6819205e-02
  1.1491722e-01
 -8.2588315e-02
  6.6964366e-02
 -4.8408546e-02
 -1.7647970e-01
  7.1165152e-02
 -8.4817767e-02
  9.3084186e-02
 -1.6577458e-02
 -2.6972058e-01
 -2.0712365e-01
  1.2456991e-01
 -1.7026881e-02
  4.5996159e-02
  2.3478320e-01
  3.7478453e-01
  1.8683329e-02
 -5.6219189e-03
  3.3613529e-02
  1.9058612e-01
  1.9870703e-01
  8.7192599e-03
  1.5353449e-01
  7.4543213e-03
  7.1796756e-03
 -1.1323795e-01
  8.4265590e-02
  1.1204436e-01
  8.9762576e-02
  7.2507419e-02
  3.2847863e-01
 -1.1151371e-01
 -1.0319240e-02
 -1.6175416e-01
 -2.2301088e-01
  1.0422044e-01
 -3.4612276e-02
  7.1942590e-02
 -3.1257987e-02
  1.3758968e-02
  2.8446075e-02
 -5.9661325e-02
  2.5351448e-02
 -5.1768504e-02
 -1.7142463e-01
  1.6326162e-01
  1.3836493e-01
 -1.3844135e-01
  2.0457568e-02
  6.8522722e-02
 -2.0408514e-01
 -2.0886311e-02
  9.6597202e-02
  2.1546715e-01
  3.2625768e-01
  2.8489766e-01
  2.2273545e-01
 -4.0656272e-01
  1.2671737e-01
 -9.6271828e-02
 -3.3414081e-02
  1.8771887e-01
  8.7893784e-02
 -1.2644595e-01
  8.9492798e-02
  6.6021442e-02
 -3.8364112e-02
  1.9715813e-01
 -1.9585234e-01
 -7.1917906e-02
  6.2941149e-02
 -5.8930721e-02
  4.7145646e-02
 -4.9846419e-03
  1.2137252e-03
 -5.3385403e-02
 -5.3813104e-02
  1.4602506e-01
 -1.4506027e-01
 -7.8401670e-02
  4.5866864e-03
  1.7471962e-02
  2.8960265e-02
  4.3058642e-03
 -2.7862854e-02
  4.2852443e-03
  2.0890001e-02
  7.2949082e-02
 -4.9445659e-02
 -3.0604582e-02
  3.1890582e-02
  3.7578586e-03
 -1.1684664e-01
 -1.1327205e-01
  9.1385275e-02
  7.2327413e-02
 -1.2412503e-01
  9.6245416e-02
 -9.2670232e-02
  2.3493132e-02
 -1.2399817e-01
 -2.9971162e-03
  1.4027947e-03
  1.1748475e-02
 -5.3402474e-03
 -3.1963685e-01
  1.8143481e-01
 -1.9659242e-02
 -1.2195319e-01
 -9.0071492e-02
 -8.8664450e-02
  2.1537142e-02
 -3.9078242e-01
  2.1565069e-01
  8.6401343e-02
  7.5272173e-02
  9.3419731e-02
 -1.4399834e-02
  5.3289887e-03
 -4.8974916e-02
  1.6111240e-01
  8.1866615e-02
 -1.9415045e-02
  7.6501280e-02
 -3.5760604e-02
  2.7760673e-02
 -6.6319175e-02
  8.3247490e-02
  2.6003361e-02
  9.8518543e-02
 -2.3263440e-02
  1.4854287e-01
  5.1095644e-03
  8.5962012e-02
 -4.0097907e-03
  5.2054096e-02
 -1.4175636e-01
  3.9985273e-02
  7.1878165e-02
  1.0391949e-01
  1.7748739e-01
 -4.7944987e-01
  9.0214303e-03
 -1.1558904e-01
 -1.9018522e-03
 -2.0855281e-01
  5.4903138e-02
 -2.3460165e-01
 -2.6613645e-02
 -6.6552825e-02
 -5.8069233e-02
 -1.0593120e-01
 -5.1979452e-02
 -1.3667628e-01
  1.0068091e-02
 -3.6053371e-02
 -2.7738437e-01
 -4.7815524e-02
  5.8070626e-02
  7.1704225e-03
 -1.3837133e-01
  1.3896702e-01
 -3.6577657e-01
  1.7645176e-01
  4.9724146e-03
  4.5080926e-02
 -1.3656315e-01
  1.5763942e-02
 -3.6426303e-01
 -1.2714675e-01
 -1.0295247e-01
  7.3935814e-02
 -3.1384391e-01
  6.0158864e-02
  1.8496615e-01
 -9.8044701e-02
 -1.5132931e-01
  9.6015543e-02
  2.1689253e-02
 -3.2850582e-02
  2.1019670e-01
 -6.8111815e-02
  1.0107778e-02
  1.2300131e-01
  9.3250968e-02
  4.6162911e-02
  4.9015351e-02
 -8.1833079e-04
  8.5821681e-02
 -1.0196791e-01
 -1.1908070e-02
 -1.6942792e-02
  2.7235837e-03
  7.3334269e-02
 -8.3794631e-02
 -2.2225723e-02
  2.2600606e-02
  2.5598146e-02
 -5.4326933e-02
  5.4840509e-02
 -3.6953211e-02
 -1.3925065e-02
 -2.4946021e-02
 -7.8055456e-02
  6.6501379e-02
 -3.0525802e-02
 -4.3164268e-01
 -1.6576165e-01
  2.9635683e-01
  8.6953081e-02
 -2.7630005e-02
  3.4724873e-02
  4.8482131e-02
  1.7960525e-01
 -9.4066076e-02
  1.4230832e-01
  1.6815193e-01
 -5.8283582e-03
 -7.6325148e-02
 -6.4606637e-02
 -3.7305963e-01
  1.0354776e-02
 -1.8363264e-01
 -3.1688654e-01
 -7.8585774e-02
  2.0491645e-01
 -1.6410519e-01
 -1.2940142e-01
 -1.7381151e-03
 -2.5962728e-01
  1.6231337e-01
 -5.9861895e-02
 -3.0844101e-01
 -1.7970276e-01
 -1.3822557e-01
 -1.1703858e-01
  7.9472877e-02
  1.0938118e-01
 -3.6478490e-02
 -1.8460009e-02
  1.0660856e-01
 -3.2209452e-02
  2.5558197e-01
  5.4587796e-02
  2.9794937e-01
  1.0665192e-01
  4.3363772e-02
 -2.3480675e-01
  3.1797171e-01
  6.2952653e-02
  1.2715049e-02
 -1.2878305e-01
 -1.4079192e-02
 -6.7845054e-02
 -1.1552257e-01
 -1.2136673e-01
 -1.4070208e-01
  5.8466956e-02
  5.7108056e-02
  7.3696300e-02
  8.9593651e-03
  1.5270595e-01
 -2.5544375e-02
  4.5734492e-01
  1.3103093e-01
 -1.4725024e-01
  7.0302673e-02
  1.1216207e-01
 -1.2946245e-02
  1.5861545e-02
  7.8226604e-02
 -2.5342248e-02
  5.1586054e-02
 -5.8908612e-02
  2.0021093e-01
 -1.5189570e-01
 -6.2213723e-02
 -1.0664886e-01
 -1.3718411e-02
  2.9276648e-01
  9.3260400e-02
 -4.5260910e-02
 -6.5527797e-01
 -3.4944597e-01
  2.0253018e-02
 -2.9309717e-01
  1.2347249e-02
  3.8844861e-02
 -2.4321808e-01
 -3.9991331e-03
  1.4724410e-01
 -3.0170217e-02
  1.8298443e-03
 -5.5277131e-02
  8.4746554e-02
  1.3297468e-01
 -2.4879931e-02
 -2.1482514e-01
 -2.0156609e-01
 -5.2586511e-02
  3.9584991e-01
  1.6599182e-02
 -1.3408239e-01
  2.9128253e-02
 -1.0933729e-01
  1.6388679e-01
 -4.6676613e-02
  2.1494442e-01
  3.2894086e-02
  2.8225076e-01
  1.1222801e-01
 -2.3955262e-01
  3.5516061e-03
  2.2742783e-01
 -5.8892220e-02
 -4.5255858e-02
  1.6705693e-01
  9.7146899e-02
  9.2061367e-03
 -9.5204264e-02
 -1.3059932e-01
  9.5200516e-02
  9.0524085e-02
  9.2012018e-02
 -4.0021945e-02
  3.4117690e-01
 -4.0001873e-02
  1.1513969e-01
 -5.4635819e-02
  2.1872085e-02
 -2.9243049e-01
 -2.7375089e-02
  3.9986998e-02
  1.1467087e-01
  7.1944028e-02
 -2.3706606e-01
 -1.6500607e-02
  6.6021025e-02
 -1.8857908e-01
 -1.9777831e-01
  8.4769718e-02
 -1.1032677e-02
 -2.6298082e-01
  8.6560398e-02
 -5.2574575e-03
  2.1195085e-01
  1.5046351e-01
  1.1892375e-01
  1.4169763e-01
  1.8197842e-02
  1.7634259e-01
  7.7697121e-02
 -1.4597435e-01
  5.4169777e-03
 -5.3906135e-02
  1.1930206e-01
  3.0208373e-01
 -1.4652471e-02
  8.9646049e-02
 -2.3299679e-01
  7.3656105e-02
 -1.2844807e-01
  1.2893145e-01
 -2.2791833e-02
 -9.1241607e-03
 -1.0891864e-02
 -1.1344235e-01
 -2.2080806e-01
 -1.1591744e-01
  2.5432774e-01
 -1.8813403e-02
 -6.3109234e-02
  1.7314544e-01
 -8.9506395e-02
  1.0047649e-02
 -1.9276629e-01
  1.9919293e-01
  3.4182288e-03
  9.7177573e-02
  2.0897092e-02
  6.1456376e-01
 -7.9829484e-02
  1.0952324e-01
 -2.4313530e-01
  1.6561925e-02
 -3.8378920e-02
 -7.8641213e-02
  1.4322050e-02
 -8.3358563e-02
 -3.1607911e-01
  3.9512534e-02
  2.9180592e-01
 -6.3689768e-02
  2.1417212e-01
 -4.7376551e-02
  1.5612970e-01
 -2.7135435e-01
  6.5510564e-02
 -1.0317650e-01
  6.1232424e-03
  2.3565027e-01
 -7.6031633e-02
 -3.3775248e-02
 -8.3110027e-02
  1.2760222e-01
  1.7911007e-01
 -6.8407543e-02
 -4.9174063e-02
 -2.9557773e-01
  6.7193642e-02
 -5.5263665e-02
 -6.3199908e-02
 -3.1048888e-02
 -6.2962263e-03
  7.2820671e-02
 -4.9641494e-02
  1.2889865e-01
  5.1482070e-02
 -6.5219095e-03
 -4.8579916e-02
 -2.3004149e-01
  2.8279368e-03
  6.0212500e-02
  1.0548809e-01
 -8.7251805e-02
 -1.2394450e-01
 -1.4846954e-02
 -1.0367942e-01
 -8.5257187e-02
  9.0825729e-02
 -1.0496308e-02
  1.7488854e-01
  1.0734282e-02
  1.2373340e-01
 -2.9512635e-01
 -3.4421425e-02
 -3.7114926e-02
 -6.0406942e-02
  9.3266435e-02
 -1.4651922e-02
  3.1490570e-01
 -1.0934158e-01
  2.5149050e-01
  2.3311298e-01
  1.1834932e-01
  3.3982304e-01
 -2.8287327e-02
  1.1438069e-01
 -1.0487584e-02
 -1.1180820e-01
  4.5735076e-02
 -2.4027301e-02
 -1.8167062e-01
 -1.2856152e-02
 -5.0628401e-02
  3.6024123e-02
  2.7660521e-02
  1.5865050e-02
 -2.3777898e-02
 -2.0497553e-02
  1.0102953e-01
 -1.8906206e-01
  1.1797462e-01
 -4.6937067e-02
  1.7606059e-01
  7.3501192e-02
  7.9434209e-02
 -5.6951605e-02
  2.3416284e-02
  2.4158176e-02
  1.7238416e-01
 -2.6789797e-02
  4.0181123e-02
  1.1609285e-01
  2.0443000e-01
  2.1295351e-01
  1.2367052e-01
 -2.2976506e-01
  2.5543490e-02
 -4.1532144e-02
  1.5023458e-01
 -1.1451426e-01
 -1.1109081e-01
  4.9427938e-02
 -3.0719334e-01
 -9.1277421e-02
  4.5295367e-03
  2.2932682e-02
 -3.2490367e-01
 -8.4096067e-02
 -3.7628613e-02
  1.3923256e-01
 -4.0775079e-02
  1.2075765e-02
 -2.8318882e-01
 -1.5153156e-01
 -6.4283580e-02
  1.4326228e-01
 -6.2833667e-02
  1.6611202e-01
  5.6142833e-02
  1.5988927e-01
  2.3250234e-01
 -1.0379454e-01
 -8.7318204e-02
 -8.2674831e-02
  2.3085114e-02
  1.6465974e-01
  5.4883532e-02
 -1.1778122e-01
  5.2058823e-02
  3.1963536e-01
  2.3968066e-01
 -6.1151832e-02
 -1.2465633e-01
  4.1027397e-02
 -1.1559513e-02
  1.7357452e-01
 -8.9277528e-02
  1.4409392e-01
  5.0057311e-02
 -2.7150446e-01
  1.1924233e-01
  5.4838002e-02
 -3.4953330e-02
 -6.4690024e-02
  3.2172777e-02
 -1.7395024e-01
 -1.9774690e-01
 -4.9385950e-02
 -8.8527799e-02
 -6.6567548e-02
 -3.7270182e-01
  3.1388083e-01
 -1.3337255e-01
  3.6437549e-03
  2.8499935e-02
  1.5677483e-01
  2.2962521e-01
  4.9414173e-01
  1.9907527e-01
 -1.5019955e-01
  4.2482981e-01
 -5.2906808e-02
  1.4418077e-01
 -1.4620858e-02
 -1.5036680e-02
  3.5679992e-02
  6.4461373e-02
  6.2738650e-02
 -3.8139001e-02
  2.8098029e-01
 -1.6096899e-01
 -1.8769884e-02
 -2.7420682e-01
  1.4467111e-01
 -6.1380077e-02
 -7.8602739e-02
 -8.4367348e-04
 -6.8685956e-02
  2.3559829e-02
  1.1273407e-01
  4.8691902e-02
  2.0705983e-02
 -2.0340367e-01
 -4.8351578e-02
 -6.3399212e-03
 -8.2856126e-02
  3.0869961e-02
  6.2001158e-02
  1.5968455e-01
 -1.0544864e-01
  9.2732809e-02
  1.0339289e-03
  2.1972717e-01
  1.7744591e-02
 -2.4389450e-02
 -9.1781653e-03
  2.2702292e-01
  3.6262684e-02
  1.4478324e-02
  3.8753292e-01
  1.0223953e-01
 -5.1990591e-02
  5.7076484e-02
 -1.9329980e-02
  3.7812024e-02
  1.7577257e-02
 -1.3036947e-01
  4.8709363e-02
 -1.9937248e-03
  1.7418949e-02
 -7.3467188e-02
  3.3055574e-02
  6.9286884e-04
  9.3772346e-03
  2.7587049e-02
 -4.8810858e-02
  7.2991937e-02
 -2.2637959e-01
  4.9426113e-03
  3.7747484e-02
 -5.0170176e-02
 -6.3984156e-02
 -2.0490567e-01
  3.0441880e-01
  1.0806416e-02
 -4.2447638e-02
 -1.8690528e-01
  4.1795954e-02
 -2.6725045e-01
 -4.9219415e-02
 -1.1481069e-01
 -7.6092104e-04
  3.2891604e-01
 -1.7775398e-01
  8.5561568e-01
  3.0822083e-02
 -1.1137420e-01
  1.1402987e-01
  1.2164818e-01
  1.0791162e-01
  2.2736573e-01
  6.8435058e-02
 -2.0804031e-01
 -1.6393639e-02
  9.7131513e-02
  4.1398384e-02
 -1.3095472e-02
  1.1444736e-01
 -1.8004745e-01
 -1.9199543e-01
 -5.3660143e-02
 -6.0655937e-02
 -6.0554616e-02
  2.1474174e-01
  7.5957865e-02
 -3.2452561e-02
 -2.6396579e-01
  4.6919532e-02
  2.9768283e-02
  8.2887709e-03
 -4.3445930e-02
  3.9035270e-01
 -1.0096955e-01
  2.5520051e-02
  3.9904956e-02
  1.2940820e-02
  6.7125641e-02
  5.0551925e-02
  1.0015316e-02
 -9.0834230e-02
 -6.7160271e-02
 -1.1005956e-01
 -2.0377928e-02
  7.8827187e-02
 -2.1825945e-02
 -1.2346568e-01
 -4.3334728e-03
  1.4345376e-01
 -2.6020789e-01
  1.5100688e-01
 -2.2288874e-01
 -3.6666315e-02
  9.0655871e-04
  2.4930907e-02
 -2.7518928e-01
 -2.4883245e-01
 -1.2512371e-01
  3.7271537e-02
  1.1444353e-01
 -7.4075364e-02
  2.2592498e-02
 -8.5517958e-02
 -6.2913299e-02
  1.9384617e-01
  2.5804979e-01
 -1.7049104e-01
  1.5366219e-01
  2.5726241e-01
  2.2483950e-02
 -3.1271106e-01
  1.3066748e-01
  2.3461377e-02
  2.0556791e-01
 -3.9925305e-03
 -9.9111333e-02
  1.3177887e-01
  1.2854722e-01
 -4.0601142e-02
  1.6262667e-01
  2.9126626e-02
 -1.5073882e-02
 -8.5699677e-02
  3.2176137e-02
 -4.2454470e-03
 -4.0404752e-02
 -2.5015342e-01
 -6.5619975e-02
  9.2215873e-02
  2.3286477e-01
  2.9266500e-01
 -2.7104527e-01
 -2.5148755e-01
  1.2521257e-01
 -1.1679352e-01
 -4.1866992e-03
  9.2654176e-02
  6.2652439e-02
  6.6498660e-02
  1.6884215e-02
  6.7974910e-02
 -1.2169220e-02
  7.7805407e-02
  6.3075729e-02
 -7.9057559e-02
 -8.4428117e-02
 -2.3668346e-03
 -3.5263780e-01
  5.6471236e-02
  1.9735283e-01
  6.7723982e-02
 -2.2332299e-01
 -1.9548226e-02
 -2.7599961e-02
  2.7774552e-02
 -1.0467251e-01
 -8.6292170e-02
 -1.2850411e-02
 -7.2394838e-03
  1.6280003e-01
 -8.4926836e-02
  9.6684784e-02
  4.4243786e-02
 -1.4996901e-03
  2.2551529e-02
  4.1781440e-02
 -3.3873849e-02
  1.9079041e-02
 -8.5960947e-02
 -3.0800025e-03
  6.8091370e-02
  1.5673506e-01
  2.0816626e-01
 -1.0703655e-01
 -4.5381618e-01
  2.9286617e-02
 -1.6769958e-01
  9.9016547e-02
  4.4841472e-02
  4.0818828e-01
 -1.3821721e-02
  9.6888550e-02
 -2.7113501e-02
 -2.5419903e-01
 -6.0631845e-02
  5.0617289e-03
  1.7879622e-01
  5.0378877e-01
 -7.3792034e-01
  8.9235649e-02
  1.7676293e+00
 -5.8081120e-01
 -7.5273448e-01
 -2.5857797e-01
 -6.0799628e-02
 -2.8115637e+00
  1.6888339e-02
 -2.6730734e-01
 -2.9066122e-01
 -3.4809405e-01
 -2.1469252e+00
 -3.6126036e-02
 -2.6884127e-01
  7.1664029e-01
  2.9488489e-02
 -3.0941141e+00
  3.4745669e-01
  5.9669998e-02
 -9.5973648e-03
  1.3238601e-01
 -1.5433114e+00
  1.6188431e-01
  3.6284295e-01
 -5.7341747e-02
 -1.0262928e-01
 -9.3153030e-01
 -1.3452803e-01
  1.2324218e-01
  1.4885691e-01
  6.8922199e-02
 -2.3666807e-01
  2.4537924e-01
  1.0372199e-01
  4.4010821e-01
 -9.0682983e-02
 -2.0656298e-01
 -5.6128636e-02
 -4.5263898e-01
  2.7794903e-02
  2.0550565e-01
 -1.3044764e-01
  3.2106046e-02
  3.7141554e-02
  4.3986525e-02
  2.6221421e-01
 -1.1937825e-02
  9.9175619e-03
 -3.2788053e-02
  3.3668704e-02
  1.1631684e-02
  1.2105156e-01
  1.5167585e-01
 -8.3488606e-02
 -1.0089798e-01
 -7.2323330e-02
  4.8835743e-02
  6.5831646e-02
 -3.1723864e-02
  3.9606575e-02
  2.8686488e-01
  5.1701561e-02
 -3.9559077e-02
 -1.1196791e-01
 -2.7439561e-02
  5.4846909e-02
 -2.4614348e-01
  8.7759510e-02
  6.9875330e-02
 -5.4446608e-02
  8.0788419e-02
  2.6548356e-01
  3.0194880e-02
  2.5074816e-01
  6.6631772e-02
  1.0409286e-01
 -3.4849828e-03
 -4.7557835e-02
  9.3763843e-02
  1.6642215e-02
  7.4854717e-02
  3.5355780e-02
  2.9434618e-01
 -1.8297166e-02
 -6.2625902e-04
  4.3598354e-02
 -2.2762835e-03
 -5.6891993e-02
  2.0576987e-01
 -1.7348770e-04
  4.9514440e-04
 -2.7436135e-02
  2.0344588e-01
  3.4066550e-02
  9.2610240e-02
 -6.2256541e-02
 -8.4124282e-03
 -7.4594910e-03
 -3.0046713e-02
 -2.5724879e-01
  1.1459164e-01
  3.5542004e-02
 -1.6973381e-01
 -3.8480246e-01
 -2.7892089e-02
  3.8850238e-04
 -5.4466076e-02
 -3.2255046e-02
 -4.1471943e-03
  2.3567249e-01
  1.2283799e-01
  1.9181775e-01
  3.3297278e-03
 -1.4023198e-02
  1.2336871e-01
  8.8688117e-03
 -1.1748140e-01
 -3.4644964e-01
  7.6355048e-02
 -4.5349604e-01
  1.2203444e-01
  2.5200921e-01
  1.4816536e-01
 -3.8307469e-02
  3.7721768e-02
  3.7811942e-02
  8.6476691e-02
  9.5834389e-02
 -2.0067669e-01
 -5.5444773e-02
  4.9752682e-03
 -2.1292353e-01
 -2.1055741e-03
 -3.9731864e-02
  4.7573369e-02
 -8.4965505e-02
  2.2296801e-02
  6.8148494e-02
  2.2160208e-02
  7.8311749e-02
 -1.2076646e-02
  4.1204821e-02
 -3.8157415e-02
 -1.2738606e-02
 -1.9423584e-02
  1.0152739e-01
  6.1849892e-02
 -8.3481029e-02
  5.2106697e-02
 -3.9855350e-02
  5.7582967e-03
 -8.7311551e-02
  1.2580709e-01
  1.0939871e-01
  4.1587513e-02
  1.8010497e-01
  2.0177616e-01
  1.3426632e-02
 -5.9977334e-02
  1.8571854e-01
 -1.2414125e-01
 -6.0540128e-02
 -1.2801719e-01
 -8.4697075e-02
  8.8765234e-02
  6.3623473e-02
  8.4398380e-03
 -4.2244913e-03
 -3.2283953e-01
  2.9823009e-02
 -1.1910046e-01
  5.3379364e-02
  1.3295239e-01
  2.1692389e-01
  3.3774206e-01
 -1.1126738e-01
 -2.5129831e-01
 -1.4009711e-01
  1.0592711e-01
  7.9812184e-02
 -3.6872748e-02
  1.4879727e-01
  5.7207630e-03
 -6.1761912e-02
  9.8190621e-02
 -1.0187277e-01
 -1.7580068e-02
 -6.1298501e-02
  3.7843928e-02
 -6.4188950e-02
 -3.4346694e-01
  4.2483483e-02
  2.3420072e-01
  5.0524760e-02
 -1.4833015e-01
  7.6684326e-02
  9.8142587e-02
  2.6863143e-01
 -7.4978590e-02
  1.3465236e-01
  2.2766952e-01
 -2.2077899e-01
  3.2772148e-01
 -2.3145708e-01
  1.5071276e-01
 -1.4689485e-02
 -2.1223711e-02
 -4.9508784e-02
  1.2989690e-02
  5.6224369e-02
 -1.2217183e-01
  7.6062292e-02
  1.3067161e-01
 -5.8654949e-02
 -2.2525169e-02
  7.6146342e-02
 -1.1358712e-01
  1.6818236e-01
 -3.6432467e-02
  4.7591597e-02
 -8.4299885e-02
 -2.6351703e-02
 -2.7555540e-02
  2.0852739e-02
 -8.7816194e-02
 -1.4781977e-01
  1.0879190e-01
  4.2518325e-02
 -1.1176671e-01
 -1.7799638e-01
 -2.1969855e-01
 -5.5483659e-03
 -1.7060180e-01
  4.5296038e-03
 -7.6883323e-02
 -2.1702038e-02
 -5.8574215e-02
 -8.4314058e-03
 -1.9332775e-01
 -2.2236484e-01
  3.7655018e-02
  4.2233106e-02
  8.7434240e-02
  3.7182443e-02
  2.9031417e-01
  7.6261282e-02
 -9.7041540e-02
  1.4039511e-02
 -5.0983086e-02
  1.9520634e-01
 -7.4543278e-03
 -3.6520275e-01
  6.3759118e-02
 -1.1105174e-01
 -3.8303595e-02
 -3.9763362e-03
 -1.8705599e-02
  1.4633080e-01
 -1.0078263e-01
 -1.0396226e-01
  8.2919579e-03
  6.8947978e-02
  1.5038221e-01
  1.7252754e-02
 -2.1856146e-01
 -1.8895935e-01
 -2.1824527e-01
 -5.7546473e-01
 -3.8369554e-01
  1.6607240e-01
  8.3290118e-01
 -1.3689994e+00
  1.6286501e+00
 -1.4839813e+00
  6.2468457e-01
  4.5948246e-01
  2.5012948e-02
 -6.2518632e-01
  5.6892365e-01
  1.3798454e-01
 -1.0713907e+00
  8.8320822e-02
  1.1203153e+00
  2.9738820e+00
 -7.3353636e-01
  1.4279374e-01
 -1.9191444e-01
  8.4786880e-01
  2.7129748e+00
 -1.4820722e+00
  6.6066718e-01
  1.4316933e-01
  6.3285416e-01
  1.4805979e-01
 -9.5484853e-02
 -8.6770886e-01
  1.0892941e-01
 -1.0604648e-01
 -1.2012543e-01
 -5.3425759e-02
 -7.5604521e-02
  1.2654777e-01
 -6.2316582e-03
 -1.8115857e-03
 -3.3248674e-02
 -1.3025372e-01
  3.8243607e-01
  2.7858090e-02
  8.7740526e-02
  2.6495134e-02
  2.9054323e-01
 -1.6808556e-02
  1.5672581e-02
 -4.0434748e-02
  9.4568729e-02
 -2.6454765e-01
 -1.0454612e-01
  2.7463222e-02
  8.8751139e-03
 -3.3101389e-01
  1.9180833e-01
 -8.6144298e-02
  5.4795571e-02
  4.6783071e-02
 -1.1653011e-01
 -5.7722218e-02
 -1.3080889e-01
  1.4601970e-02
 -9.0732902e-02
  4.1500054e-02
 -8.4140636e-02
  4.3417378e-03
 -1.3397813e-01
  7.3200455e-03
  2.0242229e-01
 -1.1757110e-02
 -4.7720410e-03
  4.3670591e-03
 -3.7822109e-02
 -3.8769272e-01
 -1.1464576e-01
 -1.6036128e-01
  2.6197823e-02
 -1.6637239e-01
  1.4807956e-01
 -1.2001549e-01
 -3.2305166e-02
  8.1325963e-02
 -1.4375944e-01
 -1.4444572e-01
 -1.8769568e-01
 -2.1334016e-01
 -2.3882909e-02
  2.6021320e-03
  2.5056567e-02
 -1.3823704e-01
  1.3666362e-02
  3.7120587e-01
  7.6883569e-02
  4.9874552e-02
 -1.5071811e-01
  1.0505294e-01
 -2.0254364e-02
  3.4301454e-01
  1.3905700e-01
  1.5991556e-02
 -1.7685822e-01
  6.9685720e-02
  9.3008369e-02
  1.9081059e-01
 -9.6872918e-02
  2.0206662e-01
  1.0784469e-01
  1.7242672e-01
 -6.0131927e-03
  2.1775721e-01
 -4.5092188e-02
  5.3176176e-02
  1.7937332e-01
  1.0631099e-01
  1.4952398e-02
  2.1308710e-01
 -1.4526077e-01
  3.1230589e-02
 -9.8056138e-02
 -9.8810075e-03
  6.4290129e-02
  3.9790791e-02
  9.7842775e-02
  3.1195956e-01
 -2.9158870e-02
 -1.1348467e-01
  1.2307485e-02
  1.1969275e-01
  6.3851111e-02
  1.1724191e-01
  2.7440295e-01
  1.1330824e-01
 -3.8861874e-02
  1.4476974e-01
  2.8595755e-01
 -7.3120100e-03
 -7.0387222e-02
  4.6990424e-02
 -1.3270642e-01
  2.0611592e-02
 -7.9966985e-02
 -3.4071580e-02
  7.8732461e-02
 -7.5195283e-02
  1.3139862e-01
 -8.2804777e-02
 -2.3013429e-01
 -1.6460472e-01
 -2.3879930e-01
 -1.3349599e-02
  1.8466131e-01
  6.8733104e-02
  2.7557129e-02
 -6.6394778e-04
 -1.9040886e-02
 -1.6656265e-01
  2.8942844e-02
  2.0358283e-02
  2.6081014e-01
 -2.7565682e-01
 -1.2237720e-02
  1.1484683e-01
 -7.6150008e-02
 -2.8599754e-01
  4.8284937e-02
  5.8869764e-02
 -1.4058922e-02
 -3.9412963e-01
 -2.8762171e-01
 -3.1701963e-02
 -1.6091891e-01
 -3.9434444e-02
 -1.9969109e-02
 -1.2259665e-02
  1.3985229e-01
 -2.0046653e-02
 -4.6665441e-02
 -1.6655520e-01
  1.1203668e-01
 -8.1308382e-03
  1.2196186e-01
 -4.1120365e-02
  1.5772668e-01
  6.1414423e-03
 -1.1470739e-01
 -1.5379414e-01
  3.9077973e-01
 -5.5092812e-01
  1.1377657e-01
 -5.2676823e-02
  6.5759361e-02
 -4.2985469e-01
 -1.0475291e-01
 -4.2601604e-02
 -4.2392001e-01
  1.0053363e-01
  8.2014933e-02
  3.2694738e-02
  7.0024535e-02
  8.9165799e-02
  6.9432430e-02
 -6.7536719e-02
 -2.7916769e-02
 -8.0597475e-02
  5.6640930e-02
  6.5226494e-03
 -1.2814473e-02
  8.7604739e-02
  3.4835491e-02
  4.3848921e-02
 -5.2564315e-02
  1.0154568e-01
 -4.9533080e-02
 -3.1012744e-01
  5.8122282e-03
  9.2595875e-02
 -7.9079680e-02
  6.7425683e-02
  1.1092378e-01
  9.2237645e-01
 -1.8231459e-01
 -1.4758849e-01
  2.1313992e-01
 -1.3218310e-01
 -1.8407084e-02
  7.2553851e-02
 -1.3617206e-01
 -1.4765194e-01
 -1.5550525e-01
 -7.3699899e-02
 -1.2680480e-02
  6.4108022e-02
  2.0149802e-01
  1.5340385e-01
 -2.6013881e-02
 -6.3744575e-02
  2.1931212e-01
  3.2330003e-02
  2.2822911e-01
  2.0656034e-01
 -5.8495910e-03
 -1.3983491e-01
 -9.6071802e-02
  4.3829817e-02
  8.3563879e-02
 -1.4127305e-01
 -2.4971552e-02
 -4.2970616e-01
 -5.6260936e-02
  2.1010771e-01
  1.6466124e-02
 -1.1923817e-01
  3.1881353e-01
  4.2426068e-02
  5.7833701e-02
 -2.8552601e-02
 -1.9591348e-03
 -2.4262975e-01
  2.5849831e-01
  4.9860410e-02
 -7.0127368e-02
 -5.1154025e-02
 -9.3889229e-02
 -3.4192652e-02
 -1.3163550e-01
  6.7734987e-02
  6.4264096e-02
 -1.7128052e-01
 -1.1897951e-01
 -3.4287397e-02
 -9.2789128e-02
  1.1635190e-01
 -5.9569083e-02
 -2.3755550e-01
  2.1635186e-02
  9.6712738e-02
 -2.2879794e-01
 -2.1077372e-02
  6.1118439e-02
  2.0019307e-03
  1.6555797e-02
 -4.8619848e-02
  2.2770023e-01
  6.3429996e-02
  1.5043099e-01
  9.6235409e-02
 -1.6069990e-02
  2.0421487e-01
 -5.2434970e-02
 -3.2545891e-02
  2.8387858e-02
  5.9192609e-02
 -3.4222934e-01
 -1.0521448e-01
  3.9814241e-02
  1.5848875e-01
 -2.0118441e-01
 -2.3982315e-01
  3.6511213e-02
 -3.9013170e-02
 -7.7902824e-02
  4.8291475e-02
  2.8027952e-01
 -7.0516147e-02
 -4.2010840e-02
  5.9594195e-02
  1.4901864e-02
 -1.5870339e-01
 -2.9673327e-02
  2.3029957e-02
 -8.2610309e-02
 -4.0611554e-02
  1.4429779e-01
  1.1915792e-01
 -1.0093158e-02
 -2.8414789e-01
 -1.0135148e-01
 -1.1632714e-01
  4.3180548e-02
  4.4743624e-03
  2.4530107e-01
 -1.4813494e-02
 -1.8131784e-01
 -2.5154647e-01
  8.2127266e-03
  2.0909809e-01
  4.2540513e-02
  2.2724873e-01
  1.8069345e-01
 -1.1240450e-01
  8.2632497e-02
  1.0039511e-02
  1.8710093e-01
 -3.0630934e-01
 -1.0968723e-01
  3.0255117e-02
  8.5434914e-03
  2.8042221e-02
  5.7534881e-02
 -1.6310313e-01
  7.2571889e-02
  1.9023459e-01
 -2.6287254e-02
  4.0181079e-03
  6.8054602e-02
  1.1184529e-01
  1.3475715e-01
 -6.3842657e-04
 -2.0105004e-02
 -9.8324858e-02
 -6.4952470e-02
 -1.4518791e-02
  1.3519834e-01
 -2.1916205e-01
  3.1167965e-02
  7.6540513e-03
 -1.9264694e-01
 -4.6959165e-02
 -2.6141834e-03
 -2.2023787e-01
  4.8744924e-02
 -1.3641414e-01
  1.5427944e-01
  1.7244221e-01
  1.0247694e-01
 -1.4427517e-02
 -2.6483653e-02
 -5.8862437e-03
 -7.4247442e-02
  9.0395562e-02
  7.3416665e-02
 -2.4007900e-02
  2.7561048e-01
  9.9443153e-02
  3.8890749e-02
  2.5794536e-01
  2.9906669e-01
 -4.7476944e-02
  2.1857567e-01
 -1.4577213e-01
  1.2427224e-03
  7.8323223e-02
 -1.9516237e-02
  1.1495399e-01
  4.5930880e-01
 -2.0282346e-01
 -1.5080439e-01
  2.1304823e-01
 -3.7663765e-02
  2.6685304e-03
  7.1573302e-02
 -9.4927780e-02
 -3.8739115e-02
 -3.2252129e-02
 -2.4349339e-02
  4.1666344e-02
 -5.4729868e-02
  4.0140413e-03
 -8.9971386e-02
  5.5927910e-02
 -2.5855520e-01
 -7.1345665e-02
  4.4159204e-02
  7.4273914e-02
  8.0277704e-02
 -1.6755968e-01
  5.6186225e-03
  2.1403857e-02
 -1.6650131e-01
  5.2409302e-03
  1.4099523e-01
 -1.2885410e-01
 -7.2068021e-02
 -5.5170756e-02
  4.5868479e-02
  1.5299890e-02
  5.1671956e-02
 -3.0599354e-02
 -1.0187622e-01
  2.0092797e-01
  6.3938692e-02
  1.7609796e-01
  7.5247968e-03
  3.2208955e+00
 -5.3262269e-01
 -1.5602785e+00
  8.8291746e-01
  4.2836719e+00
 -4.1093975e-01
  4.1650635e-01
  1.6399191e-01
 -1.3922932e+00
  1.7509693e+00
  1.9152062e-01
 -7.8712009e-02
  9.3293953e-01
 -1.7107090e+00
  2.4028157e-01
 -8.3150882e-03
 -1.2505667e-01
  3.1488800e-01
 -1.2448486e+00
 -1.0260588e-02
 -5.6011307e-01
 -5.6129712e-01
 -1.4882521e-01
 -1.4064708e-01
  1.1245953e-01
  3.1429086e-02
 -3.1882364e-01
  1.1222571e-01
  1.9631227e-02
 -1.5953198e-02
  9.7546220e-02
  2.3543833e-01
 -1.9974160e-01
  4.0355872e-02
 -8.5990302e-02
  5.1032573e-01
 -7.2331481e-02
  1.7195063e-02
  2.0000832e-01
 -1.6042963e-01
 -1.1603978e-01
 -1.2159474e-01
  4.5561931e-01
  1.1738533e-02
  2.5646776e-01
 -1.9035926e-02
  9.0449303e-02
  5.0183456e-02
  6.9880732e-03
  7.2324269e-02
 -1.4616914e-01
  2.5824133e-02
 -1.7620385e-01
  2.7591364e-02
  1.2359332e-01
  3.0951932e-02
 -4.9533240e-02
  1.0755271e-01
  4.7663921e-03
 -1.2319650e-01
  3.6829282e-03
 -1.6567013e-01
 -1.8052887e-03
  2.2609644e-01
  6.0327858e-02
  5.7236247e-02
  5.3399153e-02
 -6.9685087e-02
 -3.2701168e-02
  1.1245470e-01
  1.5163404e-01
  2.5223017e-01
 -2.8817254e-01
  6.4155385e-02
  9.3665719e-02
 -1.8089136e-02
  9.9284723e-02
  3.5850197e-01
 -2.1571478e-01
 -1.9945288e-01
 -1.3075870e-01
 -5.3246785e-02
 -1.0287617e-01
  1.5094876e-02
 -4.8167273e-02
  7.8215770e-02
 -9.8148607e-02
  1.9498417e-01
 -5.0106153e-02
  3.2526724e-02
  1.9240251e-01
  4.0539738e-02
  6.7005731e-02
  1.6560167e-01
 -8.9403853e-02
 -6.8084849e-03
 -2.4914907e-01
  8.7386295e-03
  4.7348268e-02
  6.4197108e-02
  4.3690391e-02
 -8.1127688e-02
  1.4128889e-01
 -3.5554908e-02
  8.4822454e-02
  2.7661717e-02
 -2.1188268e-02
  6.7026634e-03
  3.8352785e-01
  1.5764932e-01
  4.7960252e-02
  6.9578484e-02
  3.6268333e-01
  1.5514594e-01
 -9.2597539e-03
 -1.8304370e-01
  6.3996740e-02
  1.4578779e-01
 -1.1945817e-01
  4.9265802e-01
 -1.1420179e-01
 -2.3151517e-02
  2.1013391e-01
 -1.9715388e-01
  2.3533601e-01
  4.3346673e-02
 -7.9031728e-02
 -8.2289241e-03
  3.8543511e-02
 -2.0988646e-01
  3.0829810e-02
 -8.8056907e-02
  7.4534826e-02
 -3.1489514e-02
 -5.5215105e-02
 -1.2556081e-01
  1.6947855e-01
  6.5668575e-02
 -1.9580422e-01
 -2.7604254e-02
 -3.6739407e-03
 -3.5790987e-02
  5.5125672e-02
 -5.9775930e-02
  4.8875321e-02
 -3.2846290e-01
 -6.3857540e-02
 -1.3877366e-01
 -2.2522076e-03
  1.1681335e-01
  2.9542679e-02
 -1.7996484e-01
 -1.4732520e-02
  2.4880920e-01
  1.4458811e-01
 -1.4720967e-01
 -1.9572388e-01
  1.4564584e-01
 -1.8878868e-01
  3.6855888e-02
 -5.3160612e-02
 -1.5414173e-02
 -1.3457689e-02
 -1.3628787e-01
  9.0694793e-02
  1.3529752e-01
 -4.3700650e-02
 -3.3678420e-02
 -1.7491895e-01
 -5.1040433e-02
  3.8568929e-02
  1.0816234e-01
 -1.6848288e-01
 -9.3773536e-02
  8.6461954e-02
 -2.2802845e-01
  5.9362572e-02
  1.4502406e-03
  8.8134736e-02
  4.4636302e-02
  8.4131017e-02
 -1.0274658e-01
 -2.7511188e-01
  3.0636954e-01
  6.7525920e-03
  9.4780568e-03
 -7.7428736e-02
 -1.9648807e-02
 -1.2501256e-01
 -5.3663919e-04
 -1.4180547e-01
 -2.9052287e-02
 -1.0031158e-02
 -2.1978551e-01
  5.6898795e-02
 -1.2860176e-01
 -2.8053853e-01
 -5.3819553e-03
  1.7955370e-01
 -2.0395987e-01
  3.1211576e-01
 -1.8345223e-01
 -1.8693312e-01
  2.3967208e-02
 -5.0293088e-02
  1.8288970e-01
  1.8151985e-01
 -6.4674862e-02
  1.2249200e-01
  9.3702748e-02
  1.7593120e-01
  8.8936552e-02
  1.7255878e-01
 -2.9491943e-01
 -3.5863295e-02
 -2.5870960e-02
  2.8961799e-01
 -1.4225453e-01
  4.8483506e-02
 -1.1761981e-01
  1.5889153e-01
  9.4800554e-02
  1.2664369e-01
  3.2624997e-02
 -1.2306897e-01
  1.4272232e-02
 -1.0291600e-01
 -1.9720702e-01
 -3.4121558e-01
  1.8199860e-01
 -1.0564572e-01
  4.8983373e-02
  1.1781712e-01
 -8.6325128e-03
 -7.1449508e-04
  1.4778332e-01
  7.6162992e-03
  1.1383411e-01
 -2.8934085e-03
 -9.2945218e-02
  1.0960673e-01
  1.1413829e-01
  9.2206620e-02
 -3.9087750e-02
 -9.4572954e-02
  1.2847904e-02
 -1.7185876e-01
 -1.0762834e-01
  8.0680028e-02
  8.8354358e-03
  1.2074590e-01
  1.3492194e-01
 -4.0888216e-02
  3.4254119e-02
 -2.9353308e-02
 -1.5821200e-02
  2.1306226e-01
  8.4986374e-02
 -8.0602571e-02
  3.9046876e-02
  1.1691594e-02
  3.3350144e-02
  3.9738461e-02
 -2.7141446e-02
 -1.0574646e-01
  1.8899351e-01
  9.0889856e-03
  3.9635575e-05
  5.6156376e-03
  3.9354941e-01
  5.4353334e-02
  6.3707151e-02
  7.6492466e-02
 -1.8733434e-01
 -2.7934272e-02
 -3.5615224e-02
  1.7761961e-01
  3.5499100e-02
  1.4880503e-02
  3.8987026e-02
  1.5696596e-02
  2.4705339e-02
  3.3773780e-01
  1.6382772e-01
 -2.7676868e-01
  3.6216289e-01
 -2.5588179e-02
 -8.8807143e-02
  1.4490141e-01
  9.3206674e-02
  9.9321641e-02
  1.0199341e-01
 -1.0589565e-01
 -1.0849083e-01
  2.9332789e-02
 -2.3001669e-01
 -4.3607876e-03
 -8.6728103e-02
 -1.7637378e-01
 -2.1711376e-02
  4.4885337e-02
 -1.6410665e-01
 -3.1217161e-01
  2.3045139e-01
 -1.5536628e-02
  1.2594888e-01
  7.2934583e-02
 -1.3778962e-01
  1.4382392e-02
  9.4151407e-02
 -1.7719233e-01
  1.1226457e-03
  7.9408184e-02
  1.1732272e-01
 -1.0543440e-02
 -8.8954300e-02
 -5.1373377e-02
 -6.6149540e-02
 -1.7294961e-01
 -2.5516750e-02
 -8.3304895e-03
  1.5980427e-01
 -1.0056290e-01
  2.5605083e-01
 -1.0066401e-01
  2.1993369e-02
 -2.5311392e-02
 -1.9001646e-01
  5.0054584e-02
  1.2944716e-02
 -3.9922476e-02
  1.0483874e-01
  1.2735336e-01
  4.3123923e-02
 -7.7424914e-02
  6.1029460e-02
  8.3719358e-02
 -6.3812412e-02
 -7.8905568e-02
 -3.8620178e-02
 -2.7634360e-02
 -7.6896407e-02
 -6.9874980e-02
 -1.4687922e-02
  2.1538582e-01
  4.5937613e-02
 -1.1619866e-01
  1.8652398e-02
 -3.1600276e-01
  2.1101747e-02
 -2.3304810e-01
  4.0038213e-02
  4.8873123e-02
  3.4998816e-02
 -2.2693461e-01
  9.9007539e-02
  8.5804448e-02
 -2.1681957e-02
  1.4090078e-01
 -3.0444289e-02
  3.9823889e-04
 -5.5784453e-02
  3.3923370e-01
  2.3071556e-03
  1.9889709e-01
  1.4832306e-01
  2.9803023e-02
 -5.9234604e-02
  1.2279452e-01
 -9.4854146e-02
 -1.0053749e-01
 -1.9435954e-01
  1.0460198e-01
 -6.6774234e-02
  3.7859328e-02
 -8.5706376e-02
  8.3729565e-02
 -1.7234059e-02
  6.4275235e-02
 -6.1844126e-03
 -1.2160467e-01
  7.6147221e-02
 -1.6039334e-02
 -1.2235843e-01
  1.4098652e-01
  1.3507695e-01
 -1.6497962e-01
 -9.9785002e-03
  6.9682938e-03
  3.6971610e-02
  2.3245424e-02
 -1.8902022e-01
 -1.2499290e-03
  3.2472268e-02
 -2.4763880e-02
  3.8122427e-02
 -2.1199638e-02
 -4.1585289e-02
  4.3556485e-03
  1.6317286e-01
 -2.0267288e-01
 -1.4524880e-01
  2.0509958e-03
 -1.4865141e-02
  4.2441830e-02
  4.6335332e-02
 -1.3238433e-01
 -1.1757170e-02
  1.2382945e-01
 -1.3414791e-01
  7.1734533e-02
 -3.3268639e-01
  1.3958219e-01
 -4.1410741e-01
  1.4444381e-01
  7.8132570e-02
 -6.4191394e-02
  1.6328681e-02
 -3.1164799e-02
 -2.2300518e+00
  1.0976106e+00
 -9.2156559e-01
 -1.5585515e-02
 -4.4934550e-01
 -5.1901154e-02
  7.6456738e-01
  1.7305782e-01
  5.3455024e-03
 -7.2992694e-01
 -2.0235451e-02
 -4.7519603e-01
  5.1344442e-01
 -9.5027775e-02
 -1.5048006e-01
 -1.9400825e-01
 -1.5029721e-01
  2.2430164e-01
  3.2573873e-01
 -4.0369526e-02
  2.2978312e-01
 -7.6117972e-03
  6.6704756e-01
 -2.8074110e-01
  8.4855951e-02
 -6.1651401e-02
 -2.8904265e-01
 -2.3063844e-02
  2.7545178e-01
  5.1596425e-02
 -1.0971096e-01
 -2.3838931e-01
 -9.0766981e-02
  2.7842578e-02
  4.1601744e-02
  2.4049707e-01
 -9.5125258e-02
 -4.2288966e-02
  4.2181417e-02
  4.0378720e-02
 -9.5803678e-02
  5.4290578e-02
 -6.0335189e-02
 -2.7881005e-01
 -1.3801732e-02
 -5.5035774e-02
  1.8796450e-01
 -7.7756517e-02
  2.9829629e-02
 -4.3343160e-02
  1.3197970e-02
 -3.7516598e-02
 -1.9748901e-01
  6.4832512e-03
 -4.1880910e-03
  1.3973279e-02
  3.5648555e-02
 -1.1096791e-01
 -5.3554818e-02
 -1.3985167e-02
 -1.7859183e-01
  1.2649816e-02
 -4.4929880e-01
 -2.7628496e-01
  1.4124498e-02
  1.6910714e-01
 -4.7106400e-02
  9.1502346e-02
  5.3163759e-02
 -1.7212233e-01
 -8.1415229e-02
  2.5656575e-01
  4.3836035e-02
  2.2856733e-01
 -1.2631105e-02
  3.5924509e-02
  3.3300467e-02
 -3.4926014e-03
  7.3489279e-02
  2.0875454e-01
 -2.3696506e-03
  2.7288079e-02
  8.2791716e-02
 -5.3341605e-02
 -1.5914949e-02
 -2.1380881e-02
  1.0933389e-01
  3.3014428e-02
 -2.1196848e-01
  1.2309896e-01
  1.3090800e-01
  4.8663575e-02
 -3.7172224e-02
  5.6509577e-02
  6.5202400e-02
 -1.5614782e-01
 -1.3584355e-01
 -6.6244811e-02
  6.2969476e-02
 -1.0450504e-02
 -1.7797960e-01
 -7.0775256e-02
 -3.5702732e-01
  6.6498697e-02
 -5.0951153e-02
  6.9975808e-02
  1.8951267e-01
 -6.8753108e-02
  1.1355563e-01
 -3.3047657e-02
  1.7206982e-01
 -7.8219794e-02
 -2.7574623e-02
 -2.0826679e-01
 -2.0953454e-01
  4.0986758e-01
  6.5736428e-02
  5.3850867e-02
  7.5105033e-03
  1.2072236e-01
 -1.8753509e-01
 -1.2126830e-03
  2.5349128e-01
  2.2708985e-01
 -1.1935010e-01
  2.4600639e-03
 -1.2108493e-01
 -4.9596816e-02
 -2.3066789e-01
  8.8072523e-02
  1.3647786e-01
  1.2501432e-01
  2.5933915e-01
 -3.2186367e-02
 -1.0657059e-01
  2.4538197e-02
  6.7718364e-03
 -1.4821941e-01
  7.8365415e-02
 -8.7705053e-02
  9.2481248e-02
  6.9077753e-02
 -2.6454849e-02
 -2.8769735e-01
  3.3281725e-02
 -1.0939187e-02
  1.4260337e-01
 -3.6619026e-02
  1.6584450e-01
  3.0102605e-02
 -9.1704637e-02
  7.0325628e-02
  7.2205335e-02
  1.0244470e-01
 -3.4745354e-02
  8.0369167e-02
 -6.8455733e-02
 -3.6289282e-02
 -1.6297376e-01
 -3.7825859e-01
  1.5105245e-01
 -3.2629642e-01
 -1.8269243e-02
 -2.3390210e-01
 -5.9190586e-02
  3.6594149e-01
 -3.7647296e-02
  1.7652592e-01
 -5.5076461e-04
  1.7189991e-01
 -7.9615563e-02
 -1.8548396e-01
  6.2636167e-02
 -7.5230852e-02
  9.0409741e-03
 -8.7065451e-02
  7.5077428e-03
  4.2559667e-03
  1.6805071e-01
 -3.3432806e-01
  1.1576753e-01
 -3.9900325e-02
 -1.0849931e-01
 -4.0091958e-02
  4.5498750e-01
  1.4024429e+00
  3.2962099e-01
 -4.0202644e-02
  1.6395789e-01
 -4.2319539e-01
 -4.6582374e-01
 -7.0985131e-02
  6.1151687e-02
  7.2148837e-02
  7.6013505e-02
 -1.3481821e-01
  1.7842781e-02
  7.2551370e-02
 -7.7977560e-02
 -1.4454791e-01
  5.6316584e-02
  9.9195756e-02
 -6.6982180e-02
  1.9353965e-01
  2.0952059e-01
 -3.1873435e-02
  1.6296616e-01
 -1.8805286e-01
 -1.8962699e-01
  4.4099689e-02
  5.7122451e-01
 -2.1436419e-01
  4.7511972e-02
  7.2641872e-02
  1.3831112e-01
 -3.2839704e-02
 -1.2843972e-01
  2.1983187e-01
  2.5362539e-01
  9.7559161e-02
  1.9036783e-01
 -1.2656903e-01
 -7.9437089e-04
 -1.3085817e-01
 -2.8017318e-02
 -8.8637322e-03
  1.6759542e-01
 -1.5030985e-01
 -1.3903308e-01
 -1.6505800e-01
 -3.7739098e-02
  2.8695196e-02
  6.5385960e-02
  4.1286257e-01
 -2.8994018e-03
 -8.9123860e-02
  1.3635708e-03
  9.8305717e-02
 -5.6274761e-02
 -6.5471537e-02
  1.2676840e-01
  5.6648850e-02
  1.3647443e-03
  8.4617063e-02
 -1.8618360e-01
  9.9227279e-03
 -3.7738103e-02
 -2.7638805e-01
 -1.7115291e-02
 -8.6338311e-02
  1.2079265e-01
  1.0091176e-01
 -6.5340281e-02
 -3.3620307e-03
 -1.1479772e-01
 -2.3146287e-01
 -1.6486391e-01
  3.6388174e-02
 -3.9430179e-02
  1.7740006e-03
 -4.5933105e-02
 -2.2184293e-01
 -7.9330258e-02
 -3.8147456e-04
  2.3875831e-01
 -3.5116211e-01
 -2.4721185e-03
 -2.0907227e-02
 -2.3694709e-01
  8.0737360e-02
 -1.1540544e-01
 -2.7593285e-01
  2.8718296e-02
  1.8077947e-01
 -2.1580863e-03
 -1.3652160e-02
 -4.6234524e-01
  1.0400635e-01
  1.2562151e-01
  3.1134572e-02
  3.0983448e-02
 -1.4596356e-02
  2.9498313e-02
 -8.5938968e-02
 -2.7203830e-02
 -1.7703496e-01
 -7.8195989e-02
  8.2776859e-02
 -5.6500290e-02
  3.8717622e-03
  4.2317507e-01
 -3.9323676e-02
 -1.5096632e-01
  4.2570993e-02
 -5.2352462e-02
 -3.9000377e-02
 -7.7793496e-03
 -1.5356152e-01
 -1.2129441e-01
 -3.0043788e-02
  3.5387449e-02
 -1.8139851e-01
  3.2282168e-01
 -2.8134221e-01
  4.0256055e-03
  1.6081204e-01
  3.3836748e-02
 -4.6371397e-02
  6.7329049e-02
 -2.9631001e-01
 -1.3088156e-01
  1.3888079e-01
 -8.2518786e-02
  1.6594860e-03
  2.1860722e-02
  7.8290217e-02
 -1.0992526e-01
  2.4757868e-02
  6.5545335e-02
  9.8246790e-02
 -5.0997664e-03
 -2.7147213e-01
 -1.0228911e-01
  5.1028762e-02
 -1.4609653e-02
 -5.0061755e-03
  6.8362743e-02
 -1.6639183e-01
 -2.0892113e-01
 -2.3447002e-01
 -1.3640776e-01
 -5.4320605e-03
  2.3057932e-01
 -1.3161570e-01
 -1.7141819e-02
  2.5659111e-01
  2.7236551e-02
 -4.8351508e-02
  5.8840286e-02
  1.1804205e-01
 -4.6843874e-01
  3.4751665e-02
 -1.0739244e-01
 -9.5243528e-02
  1.8938528e-02
  7.7112816e-02
  1.4280865e-01
  4.4726707e-02
 -3.2687537e-02
 -1.7002457e-03
  1.0329526e-01
 -2.7246051e-02
  3.9140031e-02
 -1.7989764e-01
  2.8859937e-01
 -1.6778622e-02
  1.5658739e-01
  3.0657621e-03
  9.8702535e-02
  7.9481661e-02
  2.4110496e-02
  7.6106185e-01
 -7.1815498e-02
  9.1669329e-02
 -2.0520370e-02
  2.4559249e-01
  5.1897429e-02
  1.4969856e-01
  1.0014859e-01
  6.4772838e-01
 -3.9405918e-01
 -3.8421087e-02
 -7.9686746e-02
 -2.0340858e-01
  2.3599484e-03
  2.2453701e-01
  2.3390166e-01
  7.0397210e-01
 -1.1696082e-02
 -7.8498926e-03
  6.3010506e-02
 -8.0497317e-02
 -6.5217048e-02
  7.3854595e-02
  2.1559028e-01
  1.4799412e-02
  6.9077402e-02
 -1.1660456e-01
  6.0612950e-02
 -3.2550782e-02
 -1.4164019e-01
 -8.5084081e-02
 -3.9777372e-02
 -3.7773110e-02
 -8.4618360e-02
  3.2598433e-01
 -7.2182878e-03
  1.9391784e-02
  2.5064062e-02
 -4.9379671e-01
 -2.0337293e-01
 -5.1339102e-01
  2.2004182e-03
  2.3659034e-01
  2.7914194e-02
  5.4663792e-02
 -1.8107350e-01
 -2.3752108e-01
 -1.7383356e-01
 -1.4587234e-01
 -1.2993347e-05
  9.8766528e-02
 -6.5149777e-03
  3.6917701e-02
  3.0565470e-02
  2.4917088e-02
 -1.3256028e-02
 -3.6858145e-02
  7.5921692e-02
  3.9253327e-01
  4.8650842e-02
 -2.6410490e-01
 -7.3688491e-03
 -1.1756251e+00
  7.1126115e-01
 -3.5059965e-01
  3.3822262e-01
 -2.2523284e-01
 -1.7907891e-02
 -7.8280598e-02
 -2.8692830e+00
  4.0072975e-01
 -5.9744167e-01
 -2.4723972e-01
 -3.3658624e-02
  9.1584556e-02
 -9.7956166e-02
 -1.8364508e-01
  2.1745493e-01
  3.2656821e-03
  3.1542248e-01
  3.1519432e-02
 -3.0422298e-02
 -2.1799907e-01
  8.8148810e-02
 -7.1809906e-01
 -2.9555118e-01
 -3.9087737e-01
 -1.7953773e-01
 -1.2730804e-01
 -1.8584515e+00
  3.1695220e+00
  1.9786100e+00
 -1.2308149e+00
  6.0881704e-01
  1.3832352e-01
  7.7422545e-03
 -8.9885753e-01
 -1.2714693e-01
  8.4464937e-01
 -1.2455984e+00
  4.7225699e-01
 -2.0118928e+00
 -1.3885349e-01
  1.1616149e-01
 -9.8805147e-01
 -1.8971922e-02
 -1.0723672e+00
  1.2611771e+00
  6.0628241e-01
  3.8830692e-01
  6.2278494e-02
 -1.6385399e-01
  6.5888174e-02
  6.7544103e-02
 -3.2810959e-01
 -1.6761170e-01
  3.9961225e-01
  4.6182051e-02
  1.3002409e-01
 -9.9311303e-03
 -8.4939681e-02
 -3.6453653e-02
 -1.3910008e-02
  7.2476901e-02
 -1.4075181e-01
 -2.0818172e-02
 -1.5592448e-01
 -4.0595040e-02
  5.8569785e-02
 -4.7815545e-04
 -2.4333091e-02
 -9.2300749e-04
 -1.1175910e-01
  7.3026754e-02
 -5.8610115e-02
 -1.1569194e-01
  1.3031836e-01
 -6.0023274e-02
 -3.3626786e-01
 -9.6461378e-02
  9.8658092e-02
 -9.0689614e-02
  1.3089307e-01
  1.5593049e-02
  1.4872801e-01
  1.1921591e-02
  8.5523322e-02
  1.6273530e-01
  4.8117161e-01
  4.2678747e-02
  6.4849250e-02
 -8.8278614e-02
  8.4410764e-02
  8.9131013e-02
  5.1123792e-01
 -5.2675445e-02
  1.3084510e-01
 -6.4073876e-02
 -9.2311259e-03
 -5.1553750e-01
  8.6185159e-03
 -5.8116458e-02
  5.0783757e-02
  2.2170579e-01
 -1.7181534e-01
  2.0595254e-01
 -3.5039857e-02
 -9.9891916e-02
  5.5359934e-02
 -4.3212175e-02
  5.1234920e-02
  7.4232228e-02
  1.7337224e-01
  3.4860887e-03
  9.7301640e-03
  1.3896088e-01
  1.5148692e-01
  6.6946164e-02
 -1.4366619e-01
  9.4325870e-01
 -1.1603469e+00
 -7.1569461e-01
  2.1581197e+00
 -7.2117680e-01
 -1.0150790e-01
 -4.3415326e-01
 -2.7080825e-02
 -3.6009026e-01
 -2.1957651e-01
  1.1594338e-02
  8.8846982e-02
 -2.6210432e+00
 -6.7083412e-01
 -6.8905406e-02
  9.2902237e-01
 -1.4695316e-02
 -3.7330675e-01
  9.4603553e-02
  1.3733533e-01
  5.5527502e-01
 -1.2801532e-01
 -6.5057606e-02
 -2.3923190e-01
  1.2230916e-01
 -2.1872975e-02
  4.6000797e-02
  8.0128141e-02
  1.8094510e-01
 -5.5290483e-02
 -7.8212351e-01
 -9.4114818e-02
  1.6665995e-02
  2.6375651e-02
  8.0844991e-02
 -6.5478176e-01
 -6.3692403e-01
 -6.6040784e-02
 -1.7563750e-01
 -4.5247641e-01
 -4.1196766e-01
 -5.0807148e-02
  6.6606499e-02
 -2.2404033e-01
 -1.1239745e-01
 -4.3295093e-02
  1.2873630e-01
 -3.3365786e-02
 -1.4923069e-01
 -3.4422657e-01
  5.2626867e-02
  3.4300363e-01
 -1.5289749e-01
  9.2697725e-02
 -2.2526392e-01
  1.1686465e-01
  8.8837408e-03
 -8.2140468e-02
 -8.2779340e-02
  1.0213708e-01
  9.4215296e-02
 -4.2703062e-02
  3.5839775e-03
 -5.3154152e-02
 -1.2077386e-01
  4.8402898e-02
  1.8053201e-01
  2.0782186e-02
  1.7012019e-01
 -5.5937581e-02
 -2.6393619e-01
  1.6165541e-01
  1.6467614e-03
  3.2450750e-02
 -2.6277080e-03
  5.3146720e-02
  7.9882495e-02
  1.7041482e-01
  5.2388175e-03
 -8.7114293e-03
 -8.8287711e-02
 -1.6012599e-01
 -1.1756282e-01
 -2.4335495e-01
 -4.3507095e-02
 -2.2379292e-02
  4.4904798e-03
  6.1700583e-02
 -1.4918459e-02
 -2.6947489e+00
 -4.3811795e-01
 -7.9759407e-01
 -3.4466681e-01
  6.2910789e-01
 -8.1512798e-03
 -5.7151788e-01
 -2.6494078e-03
  1.4362498e-01
  1.0623180e-01
  2.2895670e-01
 -1.7117862e+00
  5.1711726e-01
  3.1328108e-02
 -2.1551995e-02
  2.2423621e-01
 -2.5030735e-01
 -1.0165299e-01
  2.0807322e-02
  4.7310358e-03
  1.7450464e-01
  1.2762736e-01
  1.1872534e-01
 -4.9555924e-02
 -2.5885813e-02
  1.4114708e-01
  3.0438128e-01
  4.1202117e-02
 -3.5916936e-01
  4.6431813e-02
 -4.9671915e-01
 -1.0127221e+00
 -7.5957757e-01
  2.5973632e+00
 -1.0212892e-01
 -8.6252779e-01
  1.1082106e+00
  1.2387931e+00
  9.3649197e-01
  5.8314675e-01
 -7.1669418e-01
  1.3182741e+00
 -9.4468361e-03
  3.1554312e-01
  6.4807528e-01
 -5.0664451e-02
  5.3232752e-02
 -6.2490427e-01
 -7.8597081e-01
  1.1437161e-01
 -2.1795480e-01
  3.1501776e-01
 -1.5320797e-01
 -1.2281070e+00
 -6.4840421e-02
 -1.8835289e-02
 -1.4899046e+00
  6.9712676e-02
  4.4089955e-01
  6.7737035e-02
  5.6759559e-02
  1.5548840e-03
 -3.1620592e-01
 -2.4546904e-02
  2.7410206e-01
 -3.8116541e-02
 -7.6947166e-03
 -7.8224972e-02
 -1.0762542e-01
  2.5692616e-02
 -2.1198530e-02
  1.5668559e-01
 -1.3480383e-01
 -6.9093779e-02
  4.7294972e-03
  1.7157815e-01
  4.7549907e-02
 -6.2120266e-02
  4.4552937e-02
  1.5745294e-01
  7.6127768e-02
  8.3299167e-02
  1.3643868e-02
  2.3246054e-01
  1.8604267e-01
 -1.1354763e-02
  1.5994787e-01
 -4.7283176e-02
  9.2013299e-02
 -1.3850920e-01
 -5.3070709e-02
 -1.0291270e+00
 -3.5904758e-02
 -1.6400382e-01
  3.2952674e-02
 -7.5778837e-05
  1.2885328e-01
  9.1802076e-02
 -4.1924357e-01
 -5.7133127e-02
  2.0757653e-02
 -4.5190521e-02
  7.0202209e-02
  9.3872026e-02
  8.5720263e-02
 -4.3705683e-03
  5.9436996e-02
 -6.9421474e-03
 -1.1480512e-01
  4.5986795e-03
  7.2066031e-02
  1.1741799e-01
 -6.4875528e-02
  1.2541404e-02
  3.1827173e-01
  7.1607590e-02
 -3.6154024e-02
  1.3906561e-02
  1.2207372e-02
  2.6152745e-02
 -1.3768293e-01
 -3.0055380e-01
 -3.9023334e-01
  3.8966373e-02
 -8.2817607e-02
 -1.5377693e-01
  1.1203205e-01
 -5.0634235e-02
 -4.5204237e-03
  1.6473903e-01
 -9.1514081e-02
  1.3738915e-01
 -4.2948123e-02
 -2.1369793e-01
  2.2803247e-01
 -1.8836389e-01
 -7.1028501e-02
 -9.8737657e-02
  1.0807759e-01
  6.2316317e-02
 -1.1743955e-01
 -1.6324760e-01
  2.2112358e-01
 -1.0363203e-01
 -1.7684598e-02
 -4.3960605e-02
 -1.3839495e-01
 -1.5759096e-01
  3.4753600e-01
 -9.8243192e-02
 -4.3071446e-01
  1.6240075e-02
 -6.2243414e-01
 -3.7225328e-02
  3.8742363e-02
  1.0921698e-01
  4.7926777e-03
 -1.5501042e-01
  9.9514112e-02
 -3.7935900e-03
  1.9437610e-01
 -2.0192368e-02
  1.0710168e-01
 -1.9902812e-01
 -3.7077025e-01
 -1.2987392e-01
 -9.4021648e-02
  1.1985550e-02
  3.7906924e-01
 -1.2660602e-01
  1.0433489e-02
 -2.5237867e-01
 -2.1858379e-02
  5.1002234e-02
 -3.8287412e-02
  1.4739611e-02
  3.6691242e-01
  1.4202967e-01
  6.2220655e-03
 -1.3382369e-02
  2.8914260e-02
 -5.5712372e-01
  2.5381999e+00
 -1.0531453e-01
 -9.4304687e-01
 -4.2966440e-01
  6.9176853e-01
  1.2271544e+00
  2.2852294e+00
  4.3193802e-01
 -2.4647108e-01
 -1.3347004e-01
  1.9913642e+00
  8.3158231e-01
  2.3191397e-01
 -3.9935954e-02
 -3.2003386e+00
  2.2007747e+00
  5.5985159e-01
  2.7217355e-01
 -3.9225440e-02
 -1.1302342e+00
  2.8456967e+00
  6.4152449e-01
  3.1825903e-01
 -4.5472285e-01
 -1.2102604e+00
  1.7872103e-02
  3.0930892e-01
  2.4984822e-02
 -1.2363339e-01
  2.2649936e-01
 -3.9532043e-02
 -3.6847826e-02
 -2.1999501e-02
 -5.9144404e-02
 -2.8544009e-01
  1.0587469e-01
 -2.1850206e-02
  2.0879833e-01
  1.4800753e-02
 -2.5144109e-01
 -7.5935356e-02
 -4.2739011e-02
 -6.2324829e-02
 -1.5790430e-01
  4.4038194e-01
 -1.3532894e-02
  1.6013919e-01
  2.9055338e-02
  1.0324378e-01
 -6.4404244e-03
  1.3330612e-01
  8.7415591e-02
  9.4307467e-02
  2.2408861e-01
 -9.6590266e-02
 -2.5015181e-02
 -1.9535686e-01
  2.8873947e-02
 -5.7406247e-01
 -1.2101815e+00
 -1.4753468e+00
  2.2410421e+00
 -1.4674246e+00
  2.7758245e+00
 -3.2628572e+00
 -5.5011559e-01
  5.9582043e-01
 -5.2480191e-01
  8.4068441e-01
 -5.5222235e+00
  2.2865370e-01
 -1.2055633e+00
 -2.0610872e-01
  2.3186393e-01
 -4.9848404e+00
 -1.2840679e-01
 -1.9930429e+00
 -7.6790154e-01
  5.4619682e-01
  4.6713403e-01
 -9.6954858e-01
 -1.8781085e+00
  1.8371592e-01
  4.7133046e-01
 -2.6302613e-02
 -7.1248692e-01
 -4.7282770e-01
  1.2751000e-01
  1.0032899e-01
 -3.9535680e-01
  8.1278212e-02
  2.0701360e-02
 -1.8700773e-02
  9.4473585e-03
 -1.2157574e-01
  1.0173259e-02
 -2.4771364e-01
  3.7450403e-02
  1.6880777e-03
 -4.9326878e-02
  2.9890772e-02
  1.3500604e-01
 -5.5590659e-02
  9.2876598e-02
  1.4909099e-02
  1.6245367e-01
  1.4758663e-01
 -3.2498834e-01
  3.4547351e-02
 -1.2798594e-01
 -5.5898584e-02
  3.4827706e-03
  5.6243196e-02
  2.7217996e-01
 -2.0581645e-01
  1.5243663e-02
  7.0833296e-02
  9.0574279e-02
  6.8896823e-02
 -2.5331396e-01
 -3.8480020e-01
 -6.4226970e-02
  1.7239153e-03
 -2.6243818e-03
  8.5408026e-03
 -1.1630197e-01
  2.7412263e-01
 -4.7434387e-01
  1.3129311e-02
  2.3818669e-01
  2.7200750e-01
 -1.2360991e-02
  4.5663584e-02
  2.1199856e-02
  9.9374972e-02
 -1.2292532e-01
  1.0083093e-02
 -2.3394279e-01
  8.4824907e-03
  1.4395453e-01
 -6.6393293e-02
 -1.7602269e-01
 -3.7607139e-01
  4.3720409e-02
 -5.0502107e-02
  8.5450664e-02
  9.7365916e-02
 -2.4517037e-02
 -3.5930362e-02
 -2.3726404e-01
 -2.3132533e-01
 -1.8069257e-01
 -2.4300497e-02
 -1.3435429e-02
 -2.0582567e-01
  1.7102550e-01
 -3.9102972e-01
  1.8835779e-02
 -8.2933664e-02
  4.7186784e-02
  9.0594754e-02
 -2.4577299e-01
  2.0105647e-01
  5.3417403e-03
  7.4430913e-02
  2.0771666e-01
  4.9624503e-02
 -1.0965352e-01
 -7.5919805e-03
  3.3353728e-01
  1.7608892e-02
  1.1405040e-01
 -2.0127553e-02
  3.4468200e-02
 -2.3550135e-01
  8.5675575e-02
  5.0204329e-02
 -8.7192163e-02
  5.2220142e-01
 -4.2783480e-02
 -1.2621857e-01
  4.9208127e-02
  1.6624528e-01
  9.5436111e-02
  1.7702842e-01
 -1.0797130e-01
  2.4827870e-02
 -5.6958586e-02
  3.9750908e-02
  1.8444328e-01
  1.6012399e-01
 -4.2806830e-02
  2.4240620e-02
 -7.7873729e-02
 -2.0429887e-01
  1.4739789e-01
  5.6153912e-02
 -7.1771912e-02
  1.4225963e-02
  3.3913648e-01
 -5.9918709e-02
 -1.8989739e-01
  1.5547827e-01
 -1.7880835e-01
 -2.2583529e-01
  3.0120483e-01
  8.2902044e-02
 -4.9473073e-02
 -2.9347447e-01
 -3.8126577e-02
 -9.6245065e-02
  9.4884504e-03
 -6.1366308e-02
 -3.7736395e-01
 -3.8565058e-02
 -3.9419305e-01
 -1.9943779e-03
 -2.4833317e-01
 -1.3412228e-01
 -7.3493356e-03
  4.7527775e-02
 -4.9204215e-02
  1.7215365e-01
  8.0245771e-02
 -1.6132307e-01
  9.4768830e-02
  1.4935872e-01
  1.2248540e-02
  3.3954397e-02
  2.2196084e-01
  7.1438514e-02
  5.6637857e-02
 -3.7548640e-01
 -1.2260206e-01
  3.4482214e-01
 -1.0682906e-01
 -1.3076870e-01
 -9.0685248e-02
 -2.7025545e-02
  3.6417946e-02
  4.1852608e-02
 -1.0399902e-02
 -6.9394917e-03
 -7.4628614e-02
  4.2457543e-02
 -4.6775911e-02
  9.9649895e-03
 -3.7519086e-02
 -2.4676675e-02
  1.1474404e-02
 -5.6752186e-02
 -6.7296796e-02
 -6.9341078e-02
 -8.1516638e-02
 -1.7390183e-01
  5.7776857e-02
  1.3420032e-01
  2.9629910e-01
  9.4376497e-02
 -5.2072052e-02
  4.3470022e-01
 -2.8226022e-02
 -3.4494728e-02
  2.7791347e-02
 -4.2199250e-02
 -2.1283100e-03
  2.3251325e-02
  4.4714745e-02
  1.7191531e-01
  2.0421350e-01
  1.3508298e-01
  1.4914410e-01
 -2.2738481e-01
 -9.6147373e-02
 -7.8064740e-02
  5.2322358e-02
  8.4751420e-02
  1.1446849e-01
  5.5857971e-02
 -1.9320479e-01
 -3.5078582e-01
 -2.9623082e-02
  2.6172808e-01
  1.7597587e-01
  3.5290979e-02
 -5.5721875e-02
  2.0462412e-01
  6.0978336e-03
 -7.6206341e-02
 -5.6302968e-02
  1.0329559e-02
  1.6458869e-01
  3.1390525e-02
  3.6816042e-02
  2.0066060e-01
  1.5112640e-01
 -4.9360223e-02
  2.3884018e-01
  1.5825278e+00
 -4.3464637e+00
 -7.3878849e-01
 -2.3022358e-01
 -4.6328965e-01
  2.7152061e-02
 -1.2134494e-01
 -5.4806507e-01
  1.0313082e-01
 -5.6975562e-02
  4.5303258e-01
  1.6383596e-01
 -3.2282865e-01
  1.7899480e-01
 -2.6943892e-01
  2.9970554e-01
  1.0178241e-01
  3.8929991e-02
  5.4493378e-04
 -3.2712302e-01
  3.5352148e-02
  1.5357547e-02
  4.4705594e-01
  7.1341573e-04
  1.5365714e-02
  6.8145781e-03
  4.0988483e-02
 -1.1812027e-01
 -1.1671976e-02
 -2.7784631e-01
 -2.1216328e-01
 -1.2383266e-01
  1.5483801e-01
 -1.0720409e-01
 -6.6281907e-02
  1.5460884e-03
 -9.6198753e-02
 -1.3706936e-02
  5.1122876e-03
  1.4747200e-02
 -4.7987659e-02
 -1.7962657e-02
  8.9109140e-03
 -1.6232891e-01
 -2.0233969e-01
  1.4509412e-02
 -8.0818243e-02
  6.1560102e-02
  6.5091886e-02
  1.6737103e-02
 -6.6237800e-02
 -1.6162951e-02
  3.9128829e-02
 -3.1816915e-01
  5.8053095e-02
  2.2356498e-01
 -1.1349260e-02
 -5.2142818e-02
  2.3853578e-01
  4.5405991e-02
 -2.8798338e-02
  1.0026306e-01
  7.5322807e-02
 -5.2069779e-02
  2.6775934e-03
 -8.5380211e-02
  8.3578922e-02
 -1.6153836e-01
  1.4435026e-01
 -5.8224761e-01
 -2.3461553e-01
  1.7746583e-01
 -4.9499590e-02
  2.5515404e-01
 -3.3735838e-02
 -3.3496842e-02
 -4.5671314e-03
 -7.4791521e-02
  6.5062945e-03
 -1.0763740e-01
  5.2205473e-04
  9.2380829e-03
  7.6130535e-03
 -2.7750418e-01
  7.6318547e-02
 -2.5343516e-01
  4.9991123e-02
  1.9550031e-02
  4.1622438e-02
 -6.8397224e-02
 -8.6213268e-02
 -3.3994667e-02
  2.2904059e-01
  3.9235700e-02
  6.6968553e-02
  1.3124973e-02
  4.2987620e-03
  1.9912221e-01
 -8.0764532e-02
 -6.1706547e-04
 -2.7994367e-01
  6.9562495e-02
  6.1790839e-02
  1.9810053e-03
  2.2505650e-01
  1.3302381e-02
 -6.4173192e-02
 -9.8885871e-02
 -2.3576755e-02
  4.4622272e-03
 -1.9277908e-01
  8.3933122e-02
 -3.9235711e-02
  2.1578819e-01
  1.1526011e-02
 -8.6320698e-02
 -7.6777250e-02
 -7.2194986e-02
 -4.5165986e-02
  9.3310699e-02
  2.1680978e-01
  2.8915739e-01
  1.0026092e-01
 -4.0672493e-01
 -2.0393951e-01
  9.5046133e-02
  8.4809661e-03
  7.7782154e-02
 -2.3273742e-01
  2.1076883e-01
  9.1125697e-02
 -1.7423762e-01
 -9.0412334e-02
 -1.0085221e-01
 -6.4539649e-02
  5.8519863e-02
 -7.9706989e-02
 -1.4778391e-02
 -2.3864506e-01
 -3.1685168e-01
 -1.0063850e-01
 -3.4598168e-04
  1.3736516e-01
 -1.9444567e-01
 -5.7644971e-02
 -2.0086820e-01
  1.8775398e-02
 -5.9265237e-02
 -1.3647076e-01
 -1.1722414e-01
  1.6727075e-01
  1.5933456e-01
  4.3682927e-01
 -3.1521089e-02
 -2.5303790e-01
 -4.2538468e-02
 -2.9121798e-02
 -1.2122803e+00
  3.3080269e-02
  6.4689748e-02
 -1.5167008e-01
 -1.0945819e-01
 -9.5190793e-02
  1.6070740e-01
 -1.4470170e-01
 -1.0180900e-01
 -8.8904329e-02
  8.1842579e-02
  3.7796814e-02
 -9.7440019e-02
 -3.7351564e-02
  7.0182674e-02
 -2.7567012e-02
 -1.4279811e-01
 -7.0292495e-02
  1.0136296e-01
  3.5560873e-01
  4.1121513e-02
 -6.5682665e-04
  2.4464099e-02
 -3.2709360e-01
 -1.5794702e-02
  2.4851263e-01
  6.4387158e-03
 -5.8545526e-02
 -1.0632376e-01
  1.1338257e-01
 -1.4604850e-01
  1.1337945e-01
 -9.0809554e-02
 -6.5935445e-03
 -1.0740594e-01
  2.6404527e-01
 -4.4960305e-03
  1.2731747e-01
 -4.3959893e-02
 -1.5914069e-01
 -9.9938415e-02
  2.8361369e-02
  1.4671077e-01
 -4.7249641e-02
  5.8580097e-03
 -2.0524780e-01
  1.0956246e-02
  3.0906569e-02
 -1.1578584e-03
  1.0483417e-01
 -1.6173357e-01
  2.9877707e-02
  2.8267689e-04
  4.7059696e-02
 -2.6737742e-02
 -2.6836270e-02
  2.9251567e-01
 -1.6206357e-01
  9.2452198e-02
 -9.9020287e-02
  4.6433937e-02
 -5.5542637e-02
 -1.8976468e-01
  2.6259350e-02
  9.8715574e-03
  1.1375516e-01
  1.0294394e-01
 -3.0079754e-02
  6.7294717e-02
 -2.6191640e-01
 -1.0155039e-01
 -2.4397376e-01
  4.4712234e-02
  2.5431994e-01
 -1.5807307e-01
 -3.1916849e-02
 -1.3817407e-01
  2.2143196e-01
 -7.2000980e-02
 -2.6674451e-02
  6.1945833e-02
 -5.4337033e-03
  2.5475264e-02
 -4.1910797e-02
  6.9876052e-02
  4.4801509e-01
 -2.1230108e-01
 -1.4217333e-01
 -1.5135622e-01
 -2.9940531e-01
 -8.4868170e-02
  4.5830552e-02
  2.8982591e-02
 -3.1708438e-02
  3.6492366e-02
  6.0443047e-02
  6.3101143e-02
  9.8861761e-02
 -1.2221593e-01
  6.3656807e-02
  1.8539591e-01
 -2.8928089e-01
  7.2450731e-03
  2.5078356e-01
 -9.7881623e-02
  5.0461728e-02
  2.0050371e-02
  4.0975076e-01
 -1.3132486e-04
 -1.2419508e-01
 -9.1127783e-02
 -4.6588746e-01
  8.8117532e-03
  2.4356951e-01
 -1.2916279e+00
 -2.3968077e-01
 -4.0957332e-02
  2.1951284e-01
 -3.1490746e-01
 -5.3702164e-01
 -9.7579673e-02
  7.1826443e-02
 -3.4032261e-01
  3.7719287e-02
 -4.1538221e-01
 -3.3102962e-01
  7.0376480e-01
  1.8659338e-01
 -2.3881285e-01
 -1.2782607e+00
 -2.9127920e-01
  2.6137072e-01
  5.2340582e-02
  9.1521025e-02
 -4.2748246e-01
  3.8460393e-02
 -2.1538228e-01
 -7.2217069e-04
  1.4113253e-01
 -1.7144434e-01
 -1.5437116e-01
  2.6671880e-01
  2.8245715e-02
  1.4359921e-01
  7.9543151e-02
 -2.5388935e-01
  2.1004833e-02
  1.2161484e-01
 -2.2136784e-01
 -7.2934572e-03
  2.5398718e-02
 -4.9323566e-02
 -4.2635739e-02
  9.8312832e-03
  8.4571660e-02
  5.0014555e-02
  1.4587098e-01
 -1.1140998e-02
 -3.8749486e-02
 -1.5220310e-01
 -1.0782828e-01
 -1.4899229e-01
 -7.7080682e-02
 -1.1684573e-01
 -1.2698987e-01
  6.7153499e-02
  5.0940085e-02
  5.2627586e-02
 -7.1994573e-02
 -7.9527639e-02
 -2.0607894e-02
  7.9529017e-02
  7.4235514e-02
  1.9365053e-01
 -1.2583714e+00
  1.7812026e-01
  9.1482803e-02
  6.7888461e-02
  1.5896296e-03
 -2.7488565e-01
 -1.4646944e-01
  1.0427215e-01
 -1.1312750e-01
  1.8856630e-01
  3.4708995e-02
  1.3560846e-02
 -9.7838230e-02
  3.5015322e-02
 -2.5134483e-01
  1.1414646e-01
  4.1652404e-04
  1.7568146e-01
  2.9076854e-02
 -2.8641442e-02
  1.1265105e-01
  2.4112784e-03
  5.4725420e-02
 -5.0554015e-02
  1.2425493e-01
 -4.9094525e-01
 -5.0417882e-01
 -5.0118327e-02
 -5.6312315e-02
  3.1736436e-01
  4.6398170e-02
 -1.8253246e-02
 -1.8644796e-01
 -1.5629782e-01
 -3.0052610e-02
  1.0839597e-01
  8.0377787e-02
  7.5416900e-03
  1.5136950e-02
  8.4455065e-02
  1.4574976e-03
  7.7136487e-02
  1.5343793e-01
  3.2503489e-01
 -1.7309025e-02
 -1.8960769e-01
 -2.7898548e-02
  3.1486075e-02
 -5.5815596e-03
  5.8806986e-02
  3.3906069e-01
  2.8871480e-02
  1.9052300e-01
  2.7689822e-03
 -1.6799586e-01
 -3.0629627e-02
 -9.1291837e-02
  8.6545251e-02
  5.7774145e-02
 -1.0988870e+00
  1.0654606e+00
 -1.1882670e+00
  1.4427384e-02
 -3.6931365e+00
  8.6362463e-01
  1.9626611e+00
 -6.4392298e-02
 -2.2549764e-03
  2.1524486e-01
 -1.3151615e-02
 -1.0075240e+00
 -1.8555874e-01
  1.4566312e+00
 -9.0202615e-03
  3.5502353e-01
 -2.5850144e-01
  3.9111364e-01
 -3.6568737e-01
  2.6788322e-02
  1.9210213e-01
  1.0531691e-01
  7.0153511e-01
 -1.7271806e-01
  4.1214788e-01
 -2.5391772e-01
 -1.7703886e-01
 -2.2951207e-01
 -1.4374560e-02
 -7.2674476e-02
 -2.5693086e-01
  9.5947105e-03
  1.7502040e-01
 -3.5135821e-03
  2.6078658e-02
  6.3104399e-02
 -1.2526908e-02
 -8.5009933e-03
 -2.7585359e-02
  1.6036765e-01
 -9.6019819e-02
 -4.6879333e-03
 -5.6569923e-02
  4.2217236e-02
  2.0817060e-02
  2.0922649e-01
  2.4385283e-02
 -1.9198070e-01
  1.2678805e-02
 -1.0590274e-01
  2.8408200e-02
  1.4082514e-01
 -5.0542355e-03
  7.7133194e-02
 -2.3160236e-02
 -1.9214777e-02
  3.7991349e-02
  5.4554064e-02
  6.4494081e-02
 -7.0668622e-03
 -6.7063734e-02
  3.2394239e-01
  2.0019796e-02
 -2.5361719e-02
 -1.1122765e-01
 -2.9058319e-02
 -7.1741343e-03
 -1.2068391e-02
 -2.3895806e-01
 -4.7345884e-02
  2.8624800e-01
 -2.9313674e-02
  7.5764805e-02
  8.8988766e-03
  3.1518988e-02
  3.2777876e-02
  1.4885154e-02
  4.3702397e-02
 -7.2030872e-03
 -1.2574041e-01
 -3.3217871e-01
 -4.4423062e-02
  2.4031250e-02
 -1.6328998e-02
 -1.5034758e-02
  7.3005378e-02
 -6.3271619e-02
 -6.1663844e-02
 -6.8078458e-02
  1.2037970e-01
  3.9295673e-02
  2.3663156e-01
 -3.2624464e-02
 -2.5913170e-02
  1.1378401e-01
  1.9183718e-02
  1.6502519e-01
  4.8389651e-02
 -2.8138381e-01
  1.9012207e-01
 -1.1649972e-01
  1.9131100e-01
  2.1069961e-02
 -5.8247894e-02
 -1.3936822e-02
  1.7705988e-02
  4.1286775e-01
  7.3966771e-02
 -3.3725385e-02
  9.8343939e-05
  1.7375395e-01
 -1.5678762e-03
  7.0085086e-02
 -1.2665930e-01
  2.5510818e-01
  1.1614663e-01
 -1.4126919e-01
  5.4247953e-02
 -7.4423425e-02
  3.1742312e-02
 -1.3956052e-01
  2.2115577e-02
 -9.7967647e-02
  7.0183896e-02
  2.8010119e-02
 -1.6784579e-01
  6.9869161e-03
 -1.7883596e-01
  5.3249806e-02
 -1.0929562e-02
 -1.5188459e-01
  3.3537596e-02
  4.3843783e-02
 -7.6394095e-03
 -1.9201732e-01
  9.3264170e-02
  1.3135503e-01
 -5.0110683e-02
  6.2739827e-02
  6.5248005e-02
  3.0542266e-02
  6.4405508e-02
 -3.3237424e-01
  3.0200716e-02
  6.9642864e-02
  1.2728444e-01
 -9.8939516e-02
 -5.8394961e-02
  3.0588862e-01
 -1.0774652e-01
  4.5932345e-03
  8.6586848e-02
 -1.8141307e-01
  3.2765204e-01
 -2.9555656e-02
 -4.0182926e-02
  2.0854983e-01
  1.2824322e-01
  3.2006770e-02
 -1.3786966e-02
  4.2135239e-02
  1.3100581e-01
  1.9144643e-02
 -1.9181934e-01
  4.5402336e-01
 -8.1886142e-02
  5.6838829e-02
 -9.6749045e-02
  9.2592956e-03
 -5.1701075e-04
  7.7378497e-02
  7.3704738e-03
  3.2534849e-02
  1.6622721e-01
  2.3714509e-02
 -1.1302832e-01
 -1.4009067e-01
 -1.1176577e-02
 -2.2491656e-02
  7.5837605e-02
 -6.1507747e-02
  3.6107241e-03
  5.7161488e-03
  3.8146496e-02
 -1.1045219e-01
  4.4748014e-01
 -4.8884254e-02
 -7.0585683e-02
  3.7156973e-02
 -2.9045295e-02
  1.4399801e-01
 -8.4213518e-02
 -2.6238497e-02
  4.1467220e-02
  8.4822021e-02
  4.9392160e-02
  1.6064972e-01
  3.9176535e-02
 -4.0834099e-02
 -1.9307416e-02
  7.6586127e-02
 -3.1764962e-02
  9.3483970e-02
  3.2298177e-02
 -6.5100774e-02
  8.1656888e-02
  1.9860633e-01
 -8.7943718e-02
 -3.3805206e-01
 -2.6001063e-01
 -1.9599579e-02
  7.7706017e-02
 -1.9910306e-01
  1.6589075e-02
  2.5756480e-02
  1.3991144e-02
  1.5861439e-02
  5.6949932e-02
  1.5315191e-01
 -1.2094788e-02
 -1.2964946e-01
  3.5713099e-02
 -1.2528642e-02
  1.5701991e-01
 -8.3546408e-02
 -6.3365154e-02
 -2.0453043e-02
 -2.5565426e+00
 -4.9648009e-02
 -5.4898050e-02
  1.4333043e-01
 -1.5413339e-01
 -1.7368898e-01
 -8.5850857e-02
 -9.2244029e-02
 -4.0035412e-02
 -6.8285160e-02
  5.6257192e-02
 -1.5410350e-01
  1.4845730e-01
  3.5764658e-01
 -4.9117196e-01
  1.4242619e-01
 -3.2833125e-02
  7.9168066e-02
  2.3489439e-01
  8.4327495e-01
 -4.6323809e-01
  4.7985196e-02
  5.4790705e-02
  2.7614930e-01
 -6.5838146e-01
 -5.5867273e-02
  3.7341926e-01
  2.4967642e-01
 -9.3968958e-02
  7.0867695e-02
  5.3135580e-01
 -1.6356753e-01
 -8.4493250e-02
 -2.7838424e-02
 -2.6876298e-01
 -1.6264391e-01
  6.9253933e-01
 -1.0683390e-01
  7.2989888e-02
 -6.4768797e-01
 -4.0330388e-02
  2.4367762e-01
 -1.7919882e-01
 -9.8832116e-02
 -3.5123624e-02
 -1.2351761e-01
  2.6450433e-02
  4.8599888e-02
 -8.0350949e-04
 -5.3940904e-03
 -1.4031641e-02
  2.8961021e-01
 -1.3575967e-02
 -8.3513856e-02
 -7.9688102e-01
  1.2409850e-01
  3.3258934e-02
 -1.6849659e-01
  4.3350212e-02
  1.0620561e-01
 -3.9763972e-02
 -2.7729925e-02
  8.9014105e-02
  5.0374188e-02
  1.1397302e-01
 -1.7622349e-01
  1.3313441e-01
 -4.6923545e-01
  4.2630371e-02
  3.5189465e-01
  1.1677746e-02
 -1.2739751e-02
 -3.9940443e-02
 -5.5518784e-02
  2.7096445e-02
 -7.1007207e-02
  5.5048976e-02
 -1.3223016e-01
 -5.4723711e-04
 -1.2945706e-01
 -1.1668564e-01
  4.8010476e-02
 -7.0035227e-02
  8.8191867e-02
 -2.3666579e-02
  2.0248637e-01
 -7.5609125e-02
  4.8854196e-01
 -1.6298490e-02
  1.3222823e-02
  1.4705501e-01
 -8.8265259e-04
  1.4665063e-02
  2.4442729e-01
  1.1935968e-01
  1.4784178e-01
 -1.5751898e-01
 -4.0793266e-02
  1.4261518e-02
 -2.7204111e-02
 -5.5249132e-02
 -8.6099431e-03
 -2.3222579e-01
  3.6116645e-02
  3.5188675e-02
  1.7455590e-01
 -2.0176204e-01
 -4.8977432e-01
  2.8046826e-01
  4.5760743e-02
 -1.3852772e-01
 -1.0612921e-01
  1.2745494e-01
 -1.5237787e-01
 -1.8491650e-01
 -1.9170757e-01
  1.8075953e-01
  6.5455116e-02
  2.9082472e-02
 -2.4908762e-01
  4.4003729e-02
  7.4564606e-02
  3.9970290e-02
  1.4296712e-01
  2.8196642e-01
 -1.7957747e-01
 -2.0877732e-02
  2.6648703e-01
 -5.0954297e-02
 -1.0484350e-01
  3.0012123e-02
  5.2105989e-02
  6.7668363e-02
  7.7623457e-02
 -1.2719196e-01
  2.0713335e-02
  2.6370332e-01
  3.1040251e-01
 -1.3200526e-01
  3.3063216e-03
  1.8733154e-01
 -2.1640662e-02
  2.9132712e-01
 -1.7075126e-01
  1.2525125e-01
 -6.7603439e-02
 -1.1629651e-01
 -1.0529511e-01
  3.2225732e-02
  1.1629288e-01
 -1.8162018e-01
 -1.2090308e-01
  2.1183519e-01
  7.3418409e-02
  6.4323723e-02
 -4.2575151e-02
 -7.1334913e-02
 -1.4051689e-01
  2.1191869e-02
 -8.5793041e-02
  1.3543823e-01
  2.4222296e-01
 -4.4067673e-02
 -1.4557382e-02
 -7.2143599e-03
  1.9218276e-01
  9.9970317e-01
 -5.7488982e-02
 -8.3973534e-02
  3.7991133e-02
  1.0760416e-01
 -2.3737742e-01
 -3.2189810e-01
 -7.3692046e-02
  1.0516291e-01
  2.7727319e-02
  8.4754020e-01
 -3.0553514e-01
 -8.1588022e-02
 -1.5286299e-02
 -1.2832990e-01
  2.5108540e-02
  3.6626928e-02
  4.4363445e-01
 -1.5210311e+00
  7.3182881e-01
  2.1337198e-01
 -1.3025194e-01
  3.2749702e-03
 -4.6634108e-02
  8.1987500e-01
 -1.2332630e+00
  2.1174779e-02
  1.0281124e-02
 -3.8449389e-01
  3.9871052e-02
 -1.4258751e-01
  1.4968221e-01
  3.7021052e-02
 -2.5310194e-02
 -1.5169480e-01
 -1.2287922e-02
  1.2301514e+00
 -3.5707630e-02
  1.8609099e-01
  8.2853660e-02
 -1.7632830e-01
  3.1107731e-02
  6.8170749e-02
 -5.5143602e-02
  5.4175179e-02
 -2.3723288e-02
  3.1009170e-01
 -1.5679736e-01
 -1.2359335e-01
 -3.2478269e-02
  2.7353990e-01
  6.2412854e-02
  5.2479673e-02
  1.8375540e-01
  2.6770703e-02
  5.7986286e-02
 -6.9109060e-02
  1.7938286e-01
 -1.6453074e-01
 -3.2463789e-01
  4.0561792e-02
  3.4272343e-01
 -1.2086481e-01
 -1.4211790e-01
 -9.3380660e-02
 -1.5077377e-02
  2.7215008e-02
 -1.2407648e-02
 -3.3224881e-02
  7.9049848e-02
  2.5821704e-01
  2.0878393e-02
  1.0292313e-01
 -3.0802307e-01
  3.3496518e-02
 -2.6599070e-01
  8.5011560e-01
 -1.7346400e+00
 -1.5547220e-01
 -1.3580325e-01
  6.1969966e-02
 -2.0679107e-01
  2.7018228e-01
 -3.7215333e-02
 -1.5777840e-01
 -2.1950558e-02
 -8.4386247e-01
 -1.1795778e-02
  1.5364109e-01
  3.0205740e-02
 -2.8204378e-03
  9.1863815e-03
 -3.2829097e-01
  1.3249090e-01
  1.0277268e-02
  9.5441556e-03
 -2.0786291e-02
 -7.4273132e-02
 -2.5961572e-01
  4.6830595e-04
  9.3287963e-01
 -5.4778744e-02
  1.1286423e-01
  1.8214071e-01
 -6.8301803e-01
 -6.0343210e-02
  2.5801823e-01
 -7.1363539e-02
 -1.2522510e-01
  1.4392796e-01
  3.1800643e-03
 -2.8196698e-02
  1.9619577e-03
  4.2448428e-02
  2.1936305e+00
 -2.4296824e-02
  1.7145394e-01
  2.2423892e-01
 -6.6969562e-03
  3.0664101e-02
  3.6007177e-02
 -1.9491105e-01
  6.5261312e-02
  7.9377443e-03
 -6.1561228e-03
 -1.3357931e-01
 -1.5241739e-01
  1.1334965e-01
 -1.4963070e+00
  1.3541172e+00
  1.9972955e-03
  2.1091299e-02
 -9.3535388e-01
  2.1589333e-02
  9.6946895e-02
 -1.2014151e+00
 -3.6779318e-02
 -2.1713903e-02
 -1.6570944e-01
  4.2040095e-02
  2.4407445e-01
  2.9997077e-02
 -6.7196381e-03
  8.6515349e-01
 -5.0996304e-02
  5.9396215e-02
  8.7635636e-02
 -7.0260704e-02
  5.2362680e-01
 -1.3371822e-01
  2.2784354e-02
  4.3990417e+00
 -7.2685100e-02
 -4.3920577e-02
  7.8161750e-03
 -3.0547261e-02
  1.2946409e-01
 -1.1775701e-01
 -6.1782189e-03
 -6.4462356e-02
  1.7198218e+00
  1.0060006e-01
  1.1752379e+00
 -2.7946636e-02
 -1.6986469e+00
  4.4260439e-02
  2.8254741e-01
 -4.6682324e-02
 -6.3960645e-03
 -8.2211748e-02
  1.0954878e-01
  4.2959392e-01
  1.2346088e-01
  1.8367107e-01
 -2.2971335e-01
  5.7695005e-02
  5.2432157e-02
 -3.7758619e-01
  2.0223454e-02
 -7.6031856e-02
  8.6482668e-01
 -6.1040407e-01
 -4.5869652e-02
  9.2327401e-02
 -1.3354400e-01
  3.3868742e-01
  3.4128382e+00
 -5.9711870e-02
  2.5670508e-02
  1.0912343e-02
 -3.4716254e-01
 -1.4301670e+00
 -2.9093412e-01
 -1.0024894e-01
  9.6677102e-02
  1.8180978e-03
 -3.2263376e-02
  8.0963093e-01
 -2.0908177e+00
  8.3391869e-01
 -2.2407916e-01
 -2.4495065e-02
 -1.0476141e-01
  1.9139027e-02
  2.3269062e+00
  1.1839832e-01
 -9.9794999e-02
 -1.1588169e-02
 -6.8527497e-02
  9.0923876e-01
 -9.5742911e-02
  5.5297211e-02
  3.7847346e-01
  5.4248157e-03
  7.8514844e-02
 -2.8348479e-01
 -1.1530000e+00
  8.1150986e-02
  7.3928133e-02
 -1.9418171e-01
 -2.2901568e-01
  8.6779073e-02
 -4.9573071e-02
  1.7774719e-01
 -1.1154341e-01
  2.5172749e-01
  9.7585678e-01
  1.1031639e-01
 -8.0752149e-03
  9.8090589e-02
  1.3870711e+00
  9.2373125e-02
 -1.0938343e-01
  1.7596112e-01
  6.0312849e-02
 -6.3184597e-02
 -1.0811704e-01
  2.6324607e-02
 -1.0974711e-01
 -1.2582995e-01
 -7.5355388e-02
  4.4223785e-01
  3.6282411e-01
  9.5690405e-03
  3.3057162e-01
 -2.7713584e-02
  2.1253817e-02
  1.1170712e-01
 -3.6868792e-02
  7.9710320e-02
 -9.0019234e-02
  5.3293097e-01
  1.5347906e-02
 -3.0227247e-01
  1.1907479e-01
  9.3167908e-02
 -7.9144247e-02
 -3.2998016e+00
  4.9747524e-01
  2.1622406e-01
 -1.1296564e-02
 -5.0845683e-01
  7.9271160e-03
  1.1013828e-02
 -1.6903704e-01
 -1.9083318e-01
  2.5954714e+00
  8.2835935e-02
 -6.2321190e-02
  1.3967671e-01
  1.9489814e-01
  1.3165905e-01
  1.7397778e-01
 -2.6989686e-01
  2.3602027e-01
  4.8510071e-02
 -4.2467657e-02
  9.5155183e-03
  2.8843576e-01
 -2.5789195e-01
  1.8683619e+00
  2.1679574e-01
 -5.4195267e-03
  7.1710989e-02
 -6.4247228e-02
  7.0382394e-03
 -1.1669713e-01
 -9.6300114e-03
  7.2454743e-02
 -7.0088901e-02
 -6.7265755e-03
 -4.2712376e-01
 -1.1658780e-01
  1.6933146e-01
  1.4755876e+00
 -4.0611822e-02
 -7.1015909e-02
  6.4827204e-02
 -3.0688694e-01
 -2.6038246e-02
  3.4867427e-01
  5.0447891e-03
  2.1357603e-02
 -3.0447599e-01
 -7.2261761e-03
  5.5091515e-02
  6.3375717e-01
 -6.6457383e-02
 -6.9452584e-01
  1.8323815e+00
  3.1998981e-02
  3.6542609e-01
 -1.1175168e+00
 -4.1943875e-01
  2.3959404e-01
 -5.4457086e-01
 -1.8530143e+00
 -6.9141500e-02
  1.9262975e-01
 -1.3922256e-01
 -5.3750682e-01
  2.0904808e+00
  3.1145256e-02
  2.5341611e+00
  1.4068270e-01
 -1.1745430e-01
  4.0472087e-02
 -2.5995230e-02
  3.9361015e-02
 -2.4995413e-01
  7.0471071e-02
 -2.8448184e+00
 -1.2252260e-02
 -9.2257276e-02
  1.1472894e-02
  9.0355977e-02
  4.0173489e-01
 -1.6264221e-01
 -1.0581079e-01
  2.0628819e-01
 -5.4498702e-01
 -1.6292448e-01
  5.5474693e-01
  3.0517498e-01
 -1.2944477e+00
 -3.7089147e-02
  1.9848950e-01
  2.5148317e-03
 -8.1047125e-02
 -1.5744166e-02
  3.5137504e-02
 -6.1974305e-01
  9.3954265e-01
 -3.8354844e-01
 -7.0243925e-02
  5.9407198e-01
 -5.3578228e-02
  4.0168319e-02
 -1.5868106e+00
 -1.6456085e-01
  3.3767289e-01
  9.5268154e-01
 -2.1470867e-01
  4.0784901e-01
  1.4064276e-01
  9.2352517e-02
 -2.6142299e-01
 -2.4489044e-01
  5.0351769e-01
  2.0378318e+00
  9.4073111e-01
  1.3511909e+00
 -6.2131882e-01
  1.3441709e+00
  4.9690135e-02
 -1.5781225e-01
  1.0215961e+00
 -7.7935791e-01
  1.2606972e+00
  1.7094800e-02
  1.2314972e-01
  4.4018349e-01
 -5.3311937e-02
  1.6201518e-02
 -1.0248658e-01
 -1.7931190e-01
  5.5552725e-02
  1.3631769e-01
 -1.6396460e-01
  7.6126747e-02
 -1.9475162e-01
  1.1797966e-01
 -7.7693209e-02
  6.1916254e-02
 -2.3778255e-01
 -1.5011443e-01
  2.4688054e-02
  1.2071842e-01
  8.0779135e-02
 -2.6557192e-02
 -5.9707288e-02
  3.3069921e-01
 -5.7920493e-02
 -6.2985405e-02
 -1.4768508e-02
  9.4682025e-03
  4.3369520e-02
  1.1098380e-01
 -1.5901463e-01
 -2.1252680e-01
 -2.2425963e-02
  4.7954708e-02
 -1.9925950e-02
 -3.3318456e-02
 -1.6395854e-02
 -6.7557782e-02
 -6.0169011e-02
  2.4101774e-01
 -1.6708826e-01
 -3.2489892e-02
 -5.3117760e-02
  9.7916968e-02
  4.2425629e-01
 -2.5324471e-02
 -1.6361785e-01
 -1.4300528e-01
  3.4588646e-02
 -9.1978330e-03
  1.5959080e-01
  1.2525639e-02
 -2.4391222e-03
 -4.9250224e-04
  3.5701577e-02
  1.6400392e-01
 -2.4600448e-01
  1.0969532e-01
  9.8633409e-02
  1.7815700e-02
  2.0563257e-01
 -5.0180871e-02
  4.5783348e-02
 -2.2842139e-02
 -6.2426899e-02
 -1.7264000e-01
 -1.5553595e-01
 -2.5264910e-01
  8.3604515e-02
 -3.1585377e-01
  1.5205329e-03
 -8.3290361e-02
  7.7727679e-03
 -9.6944016e-01
 -3.6241342e-03
  1.8246953e-01
  4.0616077e-01
 -2.0260486e-01
 -6.9242470e-02
  7.4181169e-02
  3.7007380e-02
  1.7523892e-02
 -1.1592775e-01
 -2.6963919e-01
 -4.1925885e-02
 -4.1269258e-02
  2.8653061e-03
 -5.1001571e-02
 -1.1208209e-01
  1.5546038e-02
 -1.6397287e-01
 -2.5234964e-02
 -8.1092976e-02
 -9.8301060e-02
 -1.6692230e-02
  7.0879802e-02
 -1.2163011e-01
 -5.9450034e-02
  2.3475913e-02
 -3.9329529e-02
 -5.3288932e-03
 -3.3657178e-02
  3.1825408e-01
  2.9322451e-02
  4.1350838e-02
  7.2076872e-02
 -1.0743828e-02
  1.6029108e-01
 -6.2568307e-02
  4.9029078e-02
 -6.2687322e-02
  7.2516076e-02
  2.8316621e-02
  2.1006372e-02
 -1.7362256e-01
  2.4940560e-02
  1.0541806e-01
 -6.2047198e-02
  1.0181803e-01
 -8.5676918e-03
  2.0750494e-01
  2.0461200e-02
  8.0304705e-03
 -3.6294077e-02
 -3.9982464e-02
 -4.7870521e-02
  3.8970154e-02
  2.7880061e-03
 -2.7358958e-02
  5.3724933e-02
  5.5326100e-02
 -4.9852870e-02
  3.1739655e-01
 -8.8285021e-02
  4.6308033e-02
  1.9988611e-02
 -1.2331654e-01
 -9.4587170e-03
 -1.1582205e-01
  8.8901028e-02
 -1.6353166e-01
  2.2141404e-02
  1.9541368e-02
 -1.4594169e-03
 -2.3899478e-01
  1.5309628e-02
  1.3749501e-01
 -4.3233119e-02
  9.2162721e-02
 -8.9797815e-03
  9.8993048e-02
  1.8642238e-01
  2.8212275e-02
  9.8681130e-02
  2.5865656e-01
 -6.6616111e-02
  1.2323517e-01
 -1.1229087e-01
  3.7267692e-02
 -2.6960958e-02
 -5.0274646e-01
  1.9236113e-01
  1.2519500e+00
  5.5048056e-02
  2.8992751e-01
  1.2052716e-01
  1.3433634e+00
  1.0416162e+00
  4.0860468e-01
  4.5870021e-02
  4.2498690e-01
 -5.3383124e-01
  2.3380248e-01
 -3.8789904e-01
  1.1432515e-01
  2.9130602e-01
  2.1398337e+00
  9.7010419e-02
 -1.0462502e-01
 -2.3589389e-01
  1.7510907e-01
 -3.5605699e-01
 -2.4356724e-01
  6.2609076e-02
  3.9069749e-02
 -2.0384414e-02
  1.6868499e-01
 -8.0188081e-02
 -1.9892044e-02
  5.8778856e-02
  3.9785188e-02
  2.3935474e-02
  1.1967400e-01
 -2.3962115e-01
 -7.8887105e-02
 -2.3350719e-01
  9.6444815e-02
 -2.5916657e-01
  1.0544468e-01
 -2.0858079e-02
  3.8872761e-01
  1.2489069e-01
  3.5475254e-02
 -5.8001474e-02
 -1.2874431e-03
 -6.5089613e-03
  2.8060399e-02
  4.7334600e-02
  4.4884458e-02
  1.9879517e-01
  7.0237294e-02
 -3.6988147e-02
 -2.2872083e-02
  3.4360486e-01
  3.5198009e-01
  1.1288510e-01
 -1.2865937e-01
  1.3251868e-01
  6.7126147e-02
 -1.5802766e-01
  8.8137515e-02
  5.4079015e-03
  1.1097111e-01
  7.0021033e-02
 -1.5306556e-01
  5.0465886e-02
  3.6131388e-01
 -1.2610491e-02
 -9.5410667e-02
 -1.9608209e-02
 -4.2954132e-02
 -8.3020322e-02
 -4.4148006e-02
 -8.4661573e-02
  1.6510936e-02
 -1.4283677e-02
 -3.5396125e-02
 -4.5119040e-03
  3.6274370e-02
 -9.2153668e-02
  3.7673131e-02
 -3.0401447e-01
 -6.7822319e-03
  1.3706091e-01
  3.9179090e-02
 -2.2966999e-01
  7.7665649e-02
 -1.3034020e-01
  5.5096768e-02
  1.4193503e-02
 -2.5755145e-02
 -9.2200860e-02
 -2.1281579e-01
  2.0358297e-01
 -2.8546998e-01
 -1.7648672e-01
  7.2536811e-02
  1.4688800e-01
 -3.2382095e-01
 -4.4044334e-02
 -4.3609351e-02
 -1.6995682e-01
  9.0995930e-02
 -2.7794277e-02
  3.3032992e-01
  1.4099781e-01
  6.6495374e-02
  1.6418523e-01
  1.0757151e-01
  1.0305282e-02
 -1.0556979e-01
 -5.4058678e-02
 -8.7249331e-02
 -5.5879101e-02
 -1.3124447e-01
 -4.7511999e-02
 -3.3845675e-01
  9.6130492e-03
  7.0324548e-02
  9.4382755e-02
 -6.1132919e-02
  2.4382412e-02
 -1.9697028e-01
  8.4241472e-02
  7.8569025e-02
 -7.1562454e-02
 -5.5437811e-02
 -5.4721557e-02
 -1.8637508e-01
 -1.0490733e-01
  3.4050446e-02
 -1.3513291e-02
 -2.9913703e-02
 -1.0606191e-01
 -1.1109854e-01
 -1.3429693e-02
  4.8191208e-02
  2.8890038e-01
 -1.9556445e-01
  1.0763028e-01
  3.0955628e-01
  8.9391410e-02
 -2.2536325e-01
  3.2441881e-02
 -1.0311767e-01
  4.3849857e-03
  2.2775149e-01
  7.5165607e-02
  2.3256305e-01
 -1.5789145e-01
  8.1251718e-02
  5.5775031e-02
 -1.2182475e-01
 -1.9963874e-02
  9.8590001e-02
  3.6851391e-03
  9.2405446e-02
 -2.1268008e-03
  4.0852185e-02
  1.3340792e-01
  1.6674079e-02
  1.9471079e-02
 -1.6836764e-01
  9.7412042e-02
  1.1171189e-01
  5.5899151e-02
  5.7849668e-02
 -1.0815753e-01
 -1.3494316e-01
 -1.3880695e-01
 -2.7462631e-02
 -6.0625471e-02
  1.8901916e-01
 -1.5831587e-01
  1.1271922e-01
 -1.1674587e-01
 -3.8542043e-02
  7.4946806e-02
  1.6654587e-01
  1.3197014e-01
 -1.0720269e-01
 -2.4649287e-02
 -6.3317388e-02
  4.4080436e-02
  4.2359801e-03
 -1.2001821e-01
 -9.4335698e-02
  1.8750046e-01
  2.3840971e-02
  5.2428842e-02
  6.1974637e-02
 -8.3293676e-02
 -1.4098592e-01
 -1.6688332e-01
 -5.8401745e-02
 -7.6190628e-02
  2.1863760e-01
  9.4581611e-02
  1.5083621e-01
 -1.0351492e-01
 -1.6295624e-01
 -7.4384563e-02
 -1.7947949e-01
 -3.6340266e-02
 -9.6816793e-02
  1.1685617e-01
 -3.4206089e-02
 -1.8558331e-01
 -6.7678370e-02
  1.0010335e-01
 -1.4178623e-01
  1.4681357e-01
  9.5712245e-02
 -2.5984589e-02
 -4.4069156e-02
 -3.2677524e-02
 -1.0005872e-01
 -8.7176055e-02
 -1.7889534e-01
  2.1336105e-02
  5.6267418e-02
 -6.6231608e-02
  9.0460181e-02
 -1.0359066e-01
 -3.6346948e-01
 -5.9046401e-03
  1.5575637e-01
  5.1395208e-02
  2.6991537e-02
 -2.6889176e-03
 -7.5199731e-02
 -1.0381800e-01
  1.0972335e-01
  2.0665060e-01
  1.1202506e-01
  9.4063841e-02
  1.6361952e-01
  4.0962834e-02
 -2.6992766e-02
  2.1707319e-02
  4.6163678e-01
  3.2602299e-03
  1.0992764e-02
  9.8931193e-03
  8.9236878e-02
 -1.4447547e-01
  4.6704881e-02
  2.2811753e-01
  3.7670121e-02
 -1.8288778e-01
  4.5410924e-02
  1.8591426e-01
  6.7746700e-03
  2.4630910e-01
  4.3321196e-02
  1.9848357e-01
 -2.7369238e-03
  7.3957138e-02
  1.9427878e-01
  5.5573404e-02
  1.3345778e-01
  1.9581937e-03
  8.6590997e-04
 -5.1225062e-02
 -2.0305792e-02
  6.0925644e-02
 -6.9572784e-02
 -9.7226374e-02
  2.0609702e-01
  1.5655231e-01
  1.2821688e-01
  2.3917899e-01
  9.1827903e-03
 -1.3999559e-01
 -3.7883814e-02
  4.5779478e-02
 -1.6805460e-01
  4.1848488e-02
 -8.1517875e-02
 -1.8876734e-01
 -3.8937040e-02
 -1.2039758e-01
 -1.0758098e-01
 -1.0550970e-01
  2.5322270e-01
 -6.8873502e-02
  3.9383894e-01
 -3.4476735e-02
  2.6098103e-03
 -6.5418981e-02
  9.4235361e-02
  8.7013515e-03
  1.0946722e-01
  1.0169229e-02
 -8.1947282e-02
  3.4059182e-01
  1.4557096e-02
 -6.9682717e-02
  1.3294052e-01
 -4.5453307e-01
  1.6927841e-01
  2.6284459e-01
  1.4228155e-01
 -1.8936954e-01
